warszawa 0.071648 0.52004 -0.061986 -1.1086 -0.12119 0.24639 -0.060358 -0.033784 0.087377 0.16394 0.61442 -0.081145 -0.084988 0.080164 -0.16528 0.84183 0.27261 0.2326 0.42559 0.094857 0.36475 0.25039 -0.26511 -0.10846 -0.82774 0.4182 0.18596 0.31886 -0.063224 0.021594 -0.17122 0.43923 0.069966 -0.28448 -0.12009 0.25984 -0.43473 -0.32665 0.062788 -0.49941 0.16398 -0.22464 0.10005 0.03283 0.31988 -0.71519 0.10741 0.061757 -0.063944 0.24751 0.23973 -0.43747 -0.0068548 -0.47089 0.15926 -0.12726 0.16267 -0.31597 0.17398 0.32258 0.10233 -0.23661 -1.0682e-05 -0.39446 -0.0098133 0.41336 0.18155 -0.2243 0.23901 -0.30072 0.12339 -0.0036204 -0.0066833 0.20106 0.41384 -0.040132 0.23388 -0.27637 -0.12325 0.33141 -0.28846 0.13241 0.089675 0.12327 0.42404 -0.13375 -0.33101 -0.57304 0.25307 -0.19384 -0.30677 0.36114 -0.28657 -0.042907 0.22342 -0.57955 0.011528 -0.22183 -0.55632 0.19434 -0.22003 -0.28643 0.25279 -0.046215 -0.63473 -0.10738 0.016391 0.065745 0.19551 -0.14813 -0.049372 0.054935 -0.048174 0.16051 -0.11777 0.032284 0.14537 0.17973 0.035328 -0.075681 0.21571 -0.047672 -0.3505 -0.033358 0.31008 0.43358 0.14422 -0.182 -0.22829 -0.035545 0.63343 0.1529 -0.036184 0.40538 -0.2851 -0.58778 -0.13847 -0.081046 -0.021311 -0.1795 -0.2872 0.22226 -0.076992 0.057028 0.29425 0.43452 -0.18785 0.030234 0.23883 0.32028 -0.30846 0.51407 0.57765 0.20732 0.22808 0.0051005 -0.27591 -0.47309 -0.11192 -0.066735 -0.1759 -0.55087 0.058719 -0.10499 0.22709 -0.31202 -0.068971 0.24958 -0.5263 0.41485 -0.49631 0.027843 0.17676 -0.32908 0.12502 -0.13362 -0.37024 0.2678 0.109 0.10445 0.15549 -0.52872 0.29045 -0.089091 0.23158 0.25997 0.46698 0.011016 -0.33758 0.15634 -0.080854 -0.092904 -0.31753 0.10664 0.6839 0.076644 0.46274 0.19987 -0.047402 -0.21796 0.20181 -0.012985 0.18026 0.05059 -0.20331 -0.17665 0.2887 -0.46865 -0.063219 0.24289 0.13715 0.61362 0.17444 -0.2703 0.29836 0.26355 -0.4537 0.16489 0.57485 -0.34349 -0.01557 -0.32284 -0.44893 0.13417 -0.030542 -0.27432 -0.09894 -0.26119 0.050395 0.078753 -0.18341 0.37314 -0.22327 -0.39083 -0.10653 -0.39603 -0.33624 0.12562 -0.072872 0.023052 -0.054915 -0.046088 0.40522 -0.27258 0.17608 -0.20413 -0.032418 0.17604 0.047603 -0.022885 -0.62491 -0.18205 -0.30966 -0.10174 0.16743 -0.010023 -0.2437 -0.24729 0.40174 -0.30773 -0.25573 0.17489 -0.22136 -0.053625 0.52909 -0.4632 0.35314 0.26031 -0.50394 0.37466 0.24554 -0.47359 0.91141 0.0033361 0.093649 0.30552 0.11321 -0.53691 -0.08579 -0.0045219 0.13539 0.21959 -0.18054 -0.34989 -0.19415 -0.23491 0.29953 1.0806 0.054506 -0.85308 0.049099 0.22784 -0.049991 0.087694 -1.1732 -0.20305 0.0029227 0.0081065 0.19703 -0.6436 
polska 0.32768 0.039228 -0.0016356 -0.57238 0.025188 0.17511 0.17508 0.12792 -0.23529 0.19251 -0.11597 0.069735 -0.19511 0.14754 0.67783 0.89018 -0.092192 -0.082106 0.38535 0.080017 -0.27917 0.099623 -0.01711 0.22073 -0.4198 0.12989 0.32431 -0.027639 -0.42786 0.29793 -0.052877 0.13656 0.33143 -0.37473 0.087088 0.13752 -0.14402 0.31778 0.31928 0.31363 -0.23077 0.045104 -0.38574 0.08484 0.53502 -0.28609 0.29212 -0.12017 -0.27376 -0.51105 0.38452 -0.24758 0.057168 0.068842 0.39124 -0.34961 0.39829 -0.2735 -0.041935 0.044718 0.37249 -0.0062836 0.00091275 -0.05087 0.46982 0.2767 0.65886 0.2127 -0.31101 -0.34181 0.31313 -0.067605 -0.28155 -0.24943 -0.14482 0.47807 0.29572 -0.37149 0.096486 0.16195 0.19311 -0.031891 -0.0078703 0.78125 0.3517 -0.054281 0.18532 0.039562 0.252 0.16469 -0.044483 -0.4794 -0.072231 0.31606 0.25752 0.35424 -0.21443 -0.39878 -0.040821 -0.024328 -0.075196 -0.0099735 0.28428 0.32179 0.16323 -0.37324 -0.073169 -0.37849 -0.11895 -0.12544 -0.63416 0.022649 0.23086 -0.21809 0.14337 -0.16981 -0.00082914 -0.55328 -0.75412 -0.19175 -0.24596 0.26336 -0.53116 -0.1522 -0.23057 -0.070076 0.24317 -0.037405 0.14104 -0.038232 0.30827 0.26127 0.19701 0.19858 -0.2314 -0.54448 -0.13004 -0.24671 0.32799 -0.0089683 -0.19521 0.20308 -0.20025 0.36937 -0.12099 -0.12382 -0.076545 -0.10506 0.27647 0.55637 -0.34335 -0.53534 -0.32162 0.42869 0.29855 0.024075 0.2376 0.0066398 -0.19815 -0.49573 0.28962 0.21806 0.44198 -0.14449 -0.1983 -0.13619 0.24495 0.29582 -0.17754 -0.017436 0.25818 0.066217 -0.18323 0.39972 -0.1257 -0.55992 -0.13104 -0.078128 -0.086782 0.011674 0.32547 -0.047499 0.091992 -0.2703 0.46625 0.33308 0.087614 -0.067571 -0.046889 -0.39736 0.29302 -0.10701 0.067925 0.1823 -0.11021 0.25372 -0.074653 -0.0011208 -0.076645 0.19381 0.16046 0.42135 0.15657 0.16773 -0.026232 -0.10459 0.026824 0.15752 0.24298 -0.20491 0.04664 -0.086861 0.019826 -0.3771 0.44018 0.28092 -0.41201 -0.01411 0.19378 -0.24935 0.094495 -0.64105 -0.28039 -0.36609 0.13627 -0.13263 -0.48796 -0.2702 0.1369 0.072518 -0.11004 0.49607 -0.33179 -0.23969 -0.91146 0.14697 0.24806 -0.35949 -0.19329 0.10238 -0.29399 0.10921 0.348 -0.034632 -0.095942 0.14503 -0.016536 -0.35071 -0.12632 0.062784 -0.47404 -0.47853 0.080024 0.1417 -0.4257 0.23306 -0.51813 -0.19608 -0.16722 -0.070019 0.86369 0.2674 -0.15814 0.28715 -0.30805 -0.22551 0.49099 0.23001 -0.12502 -0.15898 -0.11352 -0.55052 -0.13838 -0.1174 -0.23037 -0.0016443 0.45063 -0.1124 -0.029375 0.12009 0.010555 -0.3664 -0.18767 -0.1083 -0.31451 0.23442 0.15696 0.23895 0.19954 -0.57629 0.26697 -0.022385 0.51865 0.21447 -0.9958 -0.67327 0.41898 -0.22765 0.054704 -0.3786 
piłkarz 0.11444 0.78006 0.17804 -1.1491 -0.1708 0.10347 -0.29391 -0.17646 0.39046 -0.27977 0.12534 0.23821 -0.31483 -0.13353 0.21141 0.30665 0.061103 -0.82809 0.089914 -0.051487 0.01345 0.2763 0.24125 0.19467 -0.30011 -0.41027 -0.066971 -0.13609 0.017135 0.61477 -0.51285 0.048066 -0.31137 -0.31478 -0.28225 -0.031867 -0.66884 0.91712 -0.018349 0.43784 0.095364 -0.21385 0.17694 0.19225 0.38571 -1.3003 0.22526 0.2645 0.42516 -0.20927 -0.27799 0.25214 -0.033737 0.093658 -0.021142 -0.39531 0.097288 0.50697 0.89147 -0.27455 0.46518 0.1232 -0.42425 0.19293 -0.3131 -0.2718 0.40908 0.088928 -0.81758 0.1927 -0.027414 0.41638 -0.0083679 0.20083 0.077756 -0.33229 -0.15183 -0.085413 -0.41819 -0.20175 -0.012713 0.13531 0.06154 0.22871 0.60393 -0.044446 0.16655 -0.44157 -0.52717 -0.38515 -0.1087 0.10742 -0.23238 0.18339 0.17844 -0.18331 -0.055109 0.050253 0.53381 0.17388 -0.15324 0.16125 0.48645 0.26018 -0.11776 -0.074987 -0.62336 -0.11969 -0.19121 0.25312 -0.42606 -0.11786 0.31918 -0.32583 -0.062912 1.1142 0.22415 -0.30217 0.17537 0.076233 -0.78212 -0.58124 -0.55269 0.20994 -0.27583 -0.43362 0.31218 0.16334 0.19678 -0.39645 0.68791 -0.32378 -0.4583 -0.11584 -0.4754 -0.051092 -0.32991 0.19983 0.13897 -0.074965 0.12239 0.81939 0.46334 -0.094711 0.22976 -0.26239 -0.35472 -0.76295 0.43762 -0.48213 0.16204 -0.030607 -0.22235 0.15613 -0.33276 -0.21215 -0.13495 0.87438 0.014222 -0.55885 0.17119 0.1176 -0.17114 0.31367 -0.37159 -0.6577 -0.38307 -0.30002 -0.16948 0.34308 -0.17036 0.18741 0.013168 0.12081 0.37911 0.31275 0.33915 -0.12301 -0.35611 -0.59785 0.28484 0.27582 0.18021 0.12961 0.062574 -0.028534 -0.77906 -0.020383 0.05973 0.27896 0.10557 -0.18877 0.49324 -0.046262 -0.23313 -0.11677 -0.28811 -0.27855 -0.15741 0.18032 -0.47073 -0.24979 0.57691 -0.89862 0.68731 0.45786 -0.32532 0.10631 0.62414 0.076463 0.61656 0.26732 -0.034072 0.417 -0.084702 -0.43933 -0.20114 -0.16299 0.09204 -0.60277 -0.79906 -0.14479 -0.22446 -0.17417 -0.23552 0.99021 0.040201 -0.097582 0.10822 -0.42389 -0.15912 -0.034755 0.60375 -0.29907 0.099712 -0.20856 -0.082781 0.56572 0.79107 0.39125 -0.11105 0.4019 -0.084893 -0.44401 0.66929 0.105 -0.026826 0.13333 0.05709 -0.73205 -0.25558 0.16698 -0.32905 0.1422 0.18982 0.63238 0.051209 0.039849 -0.43383 0.38287 -0.29361 -0.24103 -0.03992 0.67563 0.41554 -0.48886 0.58191 0.041129 0.068734 -0.089638 -0.016475 -0.21371 0.33484 -0.40438 0.047454 0.74582 -0.17039 0.3922 0.62983 0.7132 0.023178 -0.17527 -0.206 -0.37051 -0.7623 -0.0093335 -0.46642 -0.21381 -0.052555 -0.38723 0.57269 -0.42843 0.39518 0.34827 -0.47279 -0.73308 0.24095 -0.35444 0.50754 0.44409 
niemcy 0.57274 0.22374 0.47542 -0.093135 0.47262 0.26816 -0.01713 0.1563 -0.129 -0.66052 0.40689 0.029208 0.25559 -0.041448 0.21442 0.39698 -0.12466 0.0031956 0.10022 0.16884 0.23143 0.61889 0.11521 0.017909 -0.282 -0.14899 0.43515 -0.10821 0.0027168 0.61866 -0.28417 -0.013419 -0.33871 -0.29954 0.076668 0.1592 -0.389 0.37622 0.012287 0.065683 0.27839 0.11979 -0.0063609 0.093085 0.49842 -0.57944 -0.067573 -0.608 0.013401 -0.42049 0.35538 -0.033722 0.062112 0.22408 0.022799 -0.50457 0.13898 0.322 -0.51979 0.35411 0.35095 -0.14107 -0.070544 0.35418 0.068479 0.40784 0.26978 -0.11381 0.00468 -0.54825 -0.10198 -0.12293 -0.63152 -0.15107 -0.0403 0.22515 0.25408 0.083382 -0.13764 0.05352 0.51019 0.054866 -0.14681 -0.34989 -0.22517 -0.19995 -0.21488 0.17074 -0.097159 -0.26356 0.45101 0.060614 -0.40655 0.22838 0.0095712 0.033221 -0.22564 0.34939 -0.36132 -1.0175 -0.11216 -0.14721 0.25147 0.51527 0.31987 -0.50744 -0.17057 -0.38295 -0.18617 -0.34223 -0.070716 0.20727 -0.33019 -0.095714 0.34437 -0.12218 -0.20667 0.20139 -0.2352 -0.20264 -0.38059 0.12702 -0.21757 -0.15543 -0.40742 -0.017898 0.27259 -0.26937 -0.12382 -0.096354 0.36069 -0.41167 0.63274 0.095827 -0.23527 -0.61326 0.19142 -0.1553 0.058564 0.29164 -0.034314 0.47977 -0.16097 0.47854 0.009 0.04788 0.19898 -0.083561 0.46676 0.10023 -0.93359 -0.5026 -0.16967 -0.29046 0.33019 0.16536 -0.023632 0.019083 0.25486 -0.41753 0.11175 -0.16964 -0.14527 0.022826 -0.13525 0.39929 -0.59459 0.15583 -0.11304 0.063027 -0.40872 0.099264 -0.051991 -0.050317 -0.22537 -0.2573 0.22396 0.052812 -0.45349 -0.16641 0.13346 0.027701 0.29888 -0.14646 0.22002 0.24704 0.38574 0.12945 -0.51642 -0.0092208 0.24673 -0.22893 -0.01366 -0.18302 -0.29821 -0.070586 -0.18486 -0.48362 0.38394 0.23404 0.16742 0.39869 0.14758 -0.31714 0.14497 0.14557 0.22829 -0.044512 0.54755 -0.1395 0.023729 -0.17019 -0.11269 0.10667 0.23075 0.20177 0.44239 0.46685 0.31593 -0.49156 0.16014 -0.16024 -0.0012816 -0.12761 -0.11162 0.28996 -0.19404 -0.3117 0.19452 -0.12755 -0.32226 0.50229 -0.45945 -0.25484 -0.37679 0.50629 -0.42605 0.46706 -0.10523 0.20608 -0.08105 0.019967 -0.4483 0.20174 0.76285 -0.11655 -0.25146 -0.25828 -0.026077 -0.17728 -0.085396 -0.40009 0.11641 0.25326 0.18419 0.11792 0.038542 -0.14422 -0.11637 -0.13745 0.51751 -0.24252 0.040096 0.19829 0.25767 -0.34604 0.34924 0.093513 0.27459 0.16018 0.26214 -0.11716 -0.021252 0.010508 -0.084828 -0.19699 0.10844 0.061341 -0.29656 -0.17287 0.15519 -0.19095 -0.023232 -0.057923 -0.059728 -0.014152 0.12887 -0.22359 0.0077349 -0.14293 -0.41967 -0.15162 0.24578 -0.082114 -0.074497 -0.16837 -0.34918 0.18005 0.34805 -0.16477 
francja 0.71286 -0.042363 0.21356 -0.5763 -0.11304 0.5941 0.12035 -0.1319 0.093774 -0.52175 -0.078314 -0.0004852 0.18906 0.21601 -0.36124 0.32634 -0.25704 -0.00576 0.34669 0.037308 0.02036 0.54881 -0.40897 0.066233 -0.18759 0.066097 0.16849 -0.21364 -0.47823 0.60827 -0.63668 0.13716 0.17566 0.21768 0.042684 -0.090927 -0.079819 0.40922 0.17989 0.17278 0.13536 -0.14366 0.43394 -0.073533 0.26597 -0.54364 -0.010432 -0.088447 -0.33136 0.19953 0.032269 -0.04128 0.087491 0.079951 0.077129 -0.31824 0.01909 0.078407 -0.71904 0.24635 0.048961 -0.46584 -0.60754 -0.032989 -0.27459 0.040588 0.20847 0.21634 0.26417 -0.40193 -0.27024 -0.017952 -0.069404 0.016549 -0.19381 0.059155 0.31742 -0.3531 -0.2228 0.27152 -0.15963 -0.05202 -0.099713 0.053385 -0.3422 -0.32268 -0.30278 0.15999 0.14584 0.13508 0.075286 -0.072219 -0.60823 0.10698 0.057729 -0.12963 0.032589 -0.33433 0.061096 -0.92133 -0.18135 0.18027 -0.081967 0.04715 0.69561 -0.28646 0.14049 -0.75057 -0.32611 -0.12749 -0.25315 -0.017037 -0.020344 -0.30244 0.47963 0.21948 -0.086553 0.28787 -0.79396 -0.5101 -0.17188 -0.24564 -0.9214 0.6007 -0.41978 0.31139 0.63418 -0.3419 0.12699 0.11397 0.35815 0.22806 0.42083 0.72 -0.19215 -0.4898 0.26606 -0.39539 -0.32472 0.17965 -0.034146 0.21937 0.45155 0.616 0.039943 -0.23883 -0.047902 -0.3619 0.4063 0.078231 -0.40587 -0.73929 -0.37911 -0.38175 -0.20101 0.19879 0.33643 0.050595 0.20685 -0.58316 -0.09907 0.084124 0.3497 0.13601 -0.62881 0.087926 -0.40322 -0.0026763 -0.20207 0.12813 -0.52988 0.096234 -0.23797 0.32518 0.072818 -0.49211 0.39471 0.21617 -0.33382 0.20047 0.13313 0.08723 -0.056813 0.045813 0.019583 0.33782 0.05172 -0.02852 0.058003 -0.31785 0.15927 0.21943 -0.043381 -0.056619 -0.29522 0.027245 -0.10734 -0.069306 0.18122 0.031527 0.46456 -0.020447 0.0010751 -0.19473 0.34218 -0.24001 0.034949 0.071203 0.28506 -0.19284 -0.18006 -0.035197 0.073713 0.08047 0.32677 0.46742 -0.26171 0.08909 0.39514 -0.34911 -0.04857 -0.1949 0.020764 -0.044554 0.038923 0.60044 -0.055123 -0.23969 0.56313 -0.053715 -0.11973 0.98036 -0.019436 0.26837 -0.22427 0.13838 -0.52133 0.24533 -0.19135 0.26639 -0.30094 0.12385 -0.21978 -0.42395 0.04379 0.21419 0.28094 0.070252 0.17008 -0.21007 -0.24777 -0.028249 0.24787 0.44976 -0.28083 0.34547 -0.29731 -0.52124 0.012388 -0.45502 0.52667 -0.19133 -0.18027 0.42208 0.29015 -0.43032 0.30088 -0.45576 0.1718 0.26252 0.26064 -0.35151 -0.14782 -0.018971 0.11777 -0.13611 0.44732 -0.10744 0.53115 -0.29038 -0.32488 -0.60019 0.17483 0.22815 -0.054446 -0.62209 0.33664 -0.031638 -0.20416 -0.67554 0.21596 0.044826 0.13465 0.080668 -0.74107 -0.34846 -0.068655 0.23838 0.45738 0.20731 
berlin 0.1422 0.28461 0.084843 0.15644 0.11833 0.28522 -0.21727 -0.011315 0.122 -0.011802 0.039512 -0.068617 -0.027125 -0.30498 0.27376 0.42905 0.22883 -0.128 -0.14681 0.089526 0.30783 0.41433 -0.0093853 0.11098 -0.47298 0.26102 0.19296 -0.43351 0.3826 0.66932 -0.50796 0.24148 0.026313 -0.41605 0.012235 0.33532 -0.21785 0.57853 0.33647 0.1419 -0.094533 -0.45878 0.096643 0.020613 0.73521 -0.3472 0.15532 0.087746 -0.32026 -0.16672 0.23931 -0.32767 0.50549 0.083425 0.059629 -0.45382 0.19869 -0.15339 0.019987 0.84226 -0.09035 0.23964 -0.19845 -0.4606 -0.29842 0.36686 0.08814 -0.48869 0.23185 -0.62489 0.079953 0.36254 0.043987 -0.41642 -0.091827 0.19658 0.61178 -0.52202 -0.050924 -0.065713 0.21437 -0.20477 -0.24217 -0.35315 0.06211 0.28693 -0.094685 -0.65889 0.15133 -0.38951 0.042894 0.40469 -0.076861 0.3489 -0.085942 0.005281 -0.073391 0.48431 -0.48683 -0.0023788 -0.26222 -0.033575 0.021815 0.43953 -0.094373 0.092065 -0.21829 -0.49411 0.026142 -0.57439 0.32852 0.28222 -0.54069 0.074546 0.16867 0.95501 -0.71072 0.45103 -0.28337 -0.11175 0.10569 0.18437 -0.15107 -0.030897 0.38766 -0.31641 0.17197 0.36011 0.1065 0.031974 0.47173 -0.14874 -0.48175 -0.096859 -0.24138 -0.4427 0.31943 -0.18407 0.37559 0.3494 -0.20614 -0.070203 -0.16983 0.023765 0.1116 0.11701 0.11661 -0.031321 0.3662 -0.11484 -0.72173 -0.38527 -0.040427 -0.22085 0.51269 -0.44141 -0.45565 -0.14467 0.21891 -0.47627 -0.14801 -0.58637 0.4546 -0.17784 0.48259 -0.042171 -0.13325 -0.37968 -0.46426 0.019165 -0.026241 0.57467 0.2072 0.10672 -0.21361 -0.26484 -0.1588 0.18079 0.11824 0.076602 0.64407 -0.02051 0.17302 0.017108 0.089456 0.17498 0.3264 -0.29866 -0.16496 0.35966 0.11112 -0.17399 0.032146 -0.65946 -0.38376 -0.53564 0.43219 0.18751 0.061829 -0.2833 -0.25505 0.043054 0.19229 0.11487 -0.45828 0.10656 0.16125 -0.25943 0.16271 0.030956 -0.090255 -0.25656 -0.055912 0.0091085 -0.041241 0.11703 0.21433 0.077193 0.29189 0.029251 -0.068339 -0.64916 0.25263 0.26995 0.02333 -0.040868 -0.11143 0.13113 0.21574 -0.1281 -0.77686 0.81115 -0.21807 -0.19776 0.40362 -0.22993 -0.37951 0.77661 -0.10893 0.19423 0.78512 -0.015326 -0.19579 0.18256 0.58709 -0.12943 0.12955 -0.060125 0.34289 -0.24383 0.056496 -0.522 0.31697 0.26441 0.10205 -0.013613 -0.045085 -0.37488 -0.0038097 0.41471 -0.19983 -0.27596 0.0082566 0.18231 0.0090377 -0.10003 0.44923 -0.22208 0.089932 0.53014 0.37201 -0.26138 0.31372 -0.46449 0.26745 0.18892 0.2565 -0.23077 0.32191 -0.25874 0.0049309 -0.030862 -0.21559 0.093177 -0.38649 0.082016 0.49634 0.54133 -0.35653 -0.18503 -0.3145 -0.072919 -0.015824 -0.25159 -0.13367 -0.098154 0.17247 -0.17977 -0.34525 -0.33121 
moskwa -0.080801 -0.36688 -0.22194 -0.17419 -0.34308 -0.24083 0.58312 0.066579 -0.0021899 -0.47879 0.3155 -0.16698 -0.27168 0.22563 0.065539 0.523 -0.17742 -0.024629 -0.058025 -0.034421 -0.093981 0.26261 -0.36161 0.18451 -0.23949 0.32477 0.26326 0.030809 0.27631 0.25414 -0.53322 -0.13412 -0.10088 -0.57742 0.63517 0.15379 -0.2907 0.42827 -0.087236 0.12868 0.047149 -0.43899 0.39556 -0.094711 0.26687 -0.8267 0.041383 -0.17495 0.3153 0.026949 0.39828 -0.25821 0.0071062 0.51477 0.1507 -0.60872 -0.19532 -0.27504 0.46135 0.66774 0.38178 -0.32187 -0.39768 -0.26584 -0.35387 0.12163 0.81523 -0.37793 -0.67493 -0.41319 0.054756 0.025012 0.60359 -0.35265 -0.2414 0.11047 0.43129 -0.6858 0.04374 0.20624 -0.34174 -0.3411 -0.20999 0.19019 0.33379 0.35902 -0.07419 -0.82301 0.42331 -0.44196 -0.090936 0.67516 -0.50309 -0.25447 0.56246 0.12559 0.45853 0.055202 -0.21504 0.031216 -0.53322 -0.11101 -0.54799 -0.036775 0.43436 0.098285 -0.23032 0.038504 -0.068612 -0.016702 -0.1917 0.2903 -0.50282 0.16098 0.22745 0.48333 -0.069331 0.40299 0.036083 0.10522 -0.029018 0.13211 0.28173 0.72524 0.24467 0.13113 0.4717 0.24645 0.42895 -0.045577 0.6722 0.071383 -0.00055899 0.18615 -0.3567 -0.064761 -0.33382 -0.023221 -0.28603 0.18096 -0.32631 -0.001708 0.16814 0.044477 0.36545 0.08297 -0.28555 -0.085424 0.0824 -0.30162 -0.53869 -0.39215 -0.20925 -0.18086 0.23441 -0.19165 0.17147 0.26288 0.15481 -0.0098481 -0.067918 -0.49634 0.75121 0.44301 0.37919 0.097767 0.1071 0.3114 -0.71185 -0.061594 -0.078519 0.45441 0.67617 0.14633 0.25252 -0.58303 -0.53674 0.65589 -0.077185 0.41122 0.39183 -0.029875 0.010193 0.45053 0.16301 -0.22545 0.33969 -0.099577 -0.21914 0.15933 0.062879 -0.050193 -0.076808 -0.18996 0.067297 0.25795 0.4326 0.072893 -0.010813 -0.25644 0.019262 0.065352 0.37419 0.33264 -0.51089 0.055315 -0.15866 -0.52245 0.15554 0.46334 0.21058 0.20844 0.38289 0.090734 0.079635 -0.048914 0.36665 0.21139 0.29158 -0.081654 0.3357 -0.17695 -0.37441 -0.21904 0.24725 -0.14909 0.033977 -0.098151 0.48539 -0.27877 -0.055527 0.81509 -0.16476 0.29088 0.19266 -0.56777 -0.59924 -0.33907 0.004126 -0.12814 0.47874 -0.29227 -0.11662 0.20925 0.43153 0.029528 0.12304 -0.14019 0.55249 -0.38802 -0.1151 0.0095567 -0.5058 0.14004 -0.26836 0.42823 -0.17305 -0.055247 0.088482 -0.42208 0.038798 -0.25037 -0.39277 -0.0049883 0.58863 -0.054257 0.35285 0.092007 -0.25404 0.26848 0.27659 -0.5095 0.70937 -0.019846 0.040452 -0.36376 -0.1924 0.11393 0.32918 0.16438 -0.068761 -0.11373 -0.24648 0.20664 -0.13502 -0.026681 0.69035 0.30014 -0.036306 -0.046189 0.19341 0.46034 0.055375 -0.18656 -0.91008 -0.78699 0.66409 -0.43053 -0.29723 -0.3248 
włochy 0.60582 0.023636 0.28047 -0.49777 0.3001 0.59019 -0.12608 0.0090172 -0.45836 -0.54917 -0.34034 -0.044941 0.44195 0.19517 -0.37905 0.098198 -0.13408 -0.21703 0.098688 -0.021949 0.1804 0.87745 -0.084902 0.096434 -0.55957 -0.36768 0.046768 0.09968 -0.67931 0.35617 -0.299 0.52401 0.43221 -0.33118 -0.17453 0.35373 0.039273 0.46172 -0.089707 0.037343 0.28884 -0.041321 0.18795 -0.042938 0.43082 -0.66938 0.031692 -0.73536 -0.27737 -0.34647 0.27778 -0.067596 0.10737 0.24555 0.31659 -0.23459 0.11303 0.22511 -0.43734 0.24742 -0.042202 -0.13736 -0.40568 0.21919 -0.078913 0.17114 0.51606 -0.0020058 -0.10852 -0.60782 -0.74498 0.16098 -0.028616 -0.2653 -0.039399 -0.2939 0.35988 -0.21404 -0.040683 0.35929 -0.34119 0.41558 -0.31572 -0.016674 -0.35593 -0.27987 -0.15411 -0.10234 0.30299 -0.0079938 -0.022959 -0.079638 -0.7502 0.044344 0.035025 -0.22647 -0.2023 -0.027422 -0.25769 -0.17606 -0.59658 -0.013669 0.32631 -0.096497 0.29502 -0.31317 -0.12296 -0.33133 -0.36529 0.14599 -0.4433 -0.074736 -0.25994 -0.1029 0.49864 0.0048498 -0.43444 -0.0023442 -0.28973 -0.26939 -0.078798 -0.2188 -0.15406 0.084987 -0.45118 0.13502 0.5235 0.16638 0.44582 -0.10294 0.11633 0.1481 0.33989 0.42971 -0.40068 -0.20465 -0.023581 0.049563 -0.37508 -0.27635 -0.25646 0.4303 -0.086612 0.45142 0.1739 0.020715 0.32265 -0.4219 0.072445 0.3014 -0.18951 -0.2534 -0.52269 -0.3464 0.025477 0.43619 -0.09612 0.15044 0.025485 -0.17845 0.22182 -0.21669 0.099761 -0.23484 -0.59279 -0.11579 -0.12752 0.165 -0.17767 0.21193 -0.20398 0.34574 -0.051719 -0.030095 -0.2137 -0.1624 0.39501 0.33476 -0.19996 0.43371 0.41957 -0.2048 0.26812 -0.22524 0.15899 0.12715 0.40751 0.20363 -0.45361 0.2082 0.19509 0.92556 0.089512 0.28461 -0.33827 0.060685 -0.052878 -0.64257 -0.10415 0.2401 0.4279 0.27057 0.3776 -0.016607 0.13753 -0.42395 0.083156 0.24062 0.24736 -0.13367 -0.24989 -0.18625 0.38249 -0.078659 0.6572 0.24417 0.35496 -0.10246 0.68184 -0.54425 0.28361 0.061291 -0.22819 -0.19318 -0.34709 0.15176 -0.35006 -0.61004 0.12073 -0.32415 -0.32411 0.46621 0.029646 -0.26283 -0.93024 -0.1058 -0.36118 0.65202 -0.057903 0.35792 0.23786 0.39319 -0.26781 -0.0041923 0.32507 0.002013 -0.10625 -0.53612 0.36047 -0.079853 -0.26919 0.10045 0.35887 0.23711 0.38889 0.10592 0.12381 -0.23514 -0.50952 -0.4377 0.27244 0.14661 -0.42769 0.23594 0.2301 -0.020518 0.01075 0.31618 0.054126 0.0059722 -0.0084357 -0.58722 0.2381 0.053005 -0.49704 0.21084 0.39568 -0.11479 0.1321 -0.17148 -0.079991 -0.31357 0.068986 -0.11701 -0.13511 -0.49024 0.31213 -0.15876 -0.29369 -0.45791 -0.26455 -0.023112 0.213 0.06149 0.017752 0.065155 0.11418 -0.3446 0.55854 0.11886 
paryż 0.05854 0.081842 0.1035 -0.32658 0.0691 0.40398 -0.241 -0.15536 0.17154 -0.41986 -0.1076 -0.00010622 -0.0073063 0.082156 -0.60986 0.68357 0.5181 0.28691 0.032864 0.037203 0.23369 -0.11638 -0.16126 0.27371 -0.32024 0.14747 -0.081726 0.23933 -0.24619 0.50118 -0.88923 0.19126 0.050187 -0.29976 0.18221 0.30384 -0.15832 -0.1377 0.17274 0.048084 -0.44316 -0.30651 0.45643 -0.4637 0.55378 -0.54821 -0.19961 -0.02498 -0.040814 -0.1963 0.41704 -0.07097 0.26882 0.25414 0.07986 -0.33089 -0.08192 0.21302 -0.40622 0.42996 0.2104 -0.55439 -0.12434 -0.52791 -0.47738 0.24902 0.015675 0.19642 0.2721 -0.17556 0.045402 0.10917 0.075562 -0.34028 -0.15853 -0.22512 0.56655 -0.32663 0.13494 0.49598 -0.41162 -0.36917 0.12216 -0.03568 -0.1153 0.059541 0.16325 -0.069767 0.11771 0.035848 0.028851 0.77235 -0.25486 0.27401 -0.42231 -0.36397 0.25934 0.30949 0.47902 -0.16957 -0.10841 -0.31309 -0.069194 0.38335 0.14706 -0.30627 -0.17312 -0.57586 0.089402 -0.23306 0.091736 0.3455 -0.51211 -0.12232 0.15084 0.67099 -0.51812 0.898 -0.51847 0.092777 0.33431 -0.040438 -0.27676 0.36352 0.10657 0.17942 0.4363 -0.017146 -0.17313 -0.07034 0.46694 0.032912 0.017956 0.32865 -0.041317 -0.040387 -0.12002 -0.28557 -0.050901 0.42091 0.2147 0.032148 0.03304 -0.30556 0.12266 -0.082756 -0.1998 -0.11564 0.40408 0.13737 -0.47469 -0.44283 0.025728 -0.016561 -0.092276 -0.35631 -0.067528 -0.47764 -0.24447 -0.43435 -0.064269 -0.42362 0.16361 -0.22304 0.1388 -0.12907 0.1553 -0.2366 -0.24596 -0.099807 -0.33358 0.24794 0.28078 -0.19125 -0.12336 -0.12482 -0.37643 0.087048 -0.066234 -0.070885 0.39381 0.1624 -0.077584 0.10215 0.28743 0.049218 0.24142 -0.45575 0.056694 0.014915 -0.19812 0.11094 -0.24658 0.052935 0.13769 -0.081228 0.14059 -0.043591 0.37818 -0.16918 0.1279 0.73307 0.17799 0.12222 0.44611 0.19821 0.45439 -0.049261 0.039179 0.090334 -0.25867 0.13958 -0.031401 -0.37669 0.1509 0.24979 0.048466 -0.17782 0.50116 -0.1496 0.15396 -0.27793 0.26074 0.27269 0.15286 -0.01951 -0.1967 0.13435 0.5099 0.11383 -0.29982 0.90049 -0.2652 0.14955 0.43076 -0.20609 -0.18079 0.17275 0.10508 0.312 0.38026 -0.40619 0.086326 0.10023 -0.24711 0.034967 0.71662 0.071496 0.48266 -0.3242 -0.29536 -0.039954 -0.012079 0.23328 -0.4472 0.39033 0.30941 -0.4065 0.24574 0.064061 0.57127 -0.10678 0.062192 0.31315 0.32626 -0.44372 0.56766 -0.181 -0.26567 -0.17669 0.066255 -0.50192 0.31073 -0.5086 -0.35877 -0.18528 0.07434 0.10045 0.48899 0.40501 0.10016 -0.13797 -0.13988 0.26854 -0.19115 -0.31489 0.53114 0.39784 0.24864 -0.64559 0.12244 0.1292 0.023711 -0.15233 -0.52113 -0.35793 0.11065 -0.27395 0.35995 -0.55466 
rosja 0.93883 -0.32767 0.18578 0.16023 0.19019 0.15635 0.54114 0.25993 -0.13071 -0.013574 -0.22918 -0.53538 0.15602 -0.075073 0.097391 0.17917 -0.50565 0.23814 -0.095673 0.013213 -0.094298 0.22247 0.034351 0.2765 -0.39403 -0.083498 -0.0029959 -0.11242 -0.29052 0.21936 -0.21497 0.13074 -0.033674 -0.66548 0.46519 -0.21257 -0.39439 0.82023 0.15178 0.45414 0.23314 -0.088066 0.45179 0.092471 0.34143 -0.95581 0.071385 -0.10875 -0.18184 -0.089836 0.34273 0.34444 -0.3891 0.72264 0.20054 -0.40557 -0.11382 -0.31019 0.032879 0.45407 0.19053 -0.73696 -0.68429 -0.023029 -0.31271 0.057652 0.35844 0.014752 -0.39639 -0.46485 -0.24077 -0.1841 -0.1507 -0.046115 -0.15671 0.13509 -0.17382 -0.2099 -0.31575 0.11118 0.049267 -0.38761 -0.051838 0.47993 -0.068248 -0.22794 0.14351 0.13972 0.40346 0.033994 -0.070734 0.19549 -0.58877 -0.014038 0.40923 0.070681 0.16837 -0.35566 -0.079943 -0.74273 -0.45826 -0.023114 0.092542 -0.094335 0.43017 -0.39613 0.090434 0.094909 -0.66583 0.18233 -0.271 -0.037313 -0.23848 -0.10448 0.16288 0.36685 -0.11467 0.082976 -0.022943 -0.022752 -0.35598 0.14083 -0.84068 0.17024 -0.3606 0.32248 0.50194 0.17822 0.23057 0.28051 0.53833 0.17135 0.3309 0.46941 -0.29855 -0.49387 0.33024 -0.2954 -0.39323 -0.25888 -0.31809 0.15924 0.013148 0.5065 -0.095564 -0.1533 0.33617 0.13018 0.31241 -0.059564 -0.88171 -0.26006 -0.26748 -0.18596 0.0090445 -0.033795 -0.086956 0.32171 0.074517 -0.13767 -0.35798 -0.34319 0.4368 0.15577 -0.34089 0.1934 -0.42393 0.44368 -0.097817 -0.27535 -0.31959 0.23229 0.52154 0.16141 0.010237 -0.40431 0.21443 0.75715 -0.36406 0.60061 0.18188 -0.27153 -0.11911 0.23528 -0.041081 0.17719 0.28034 0.30659 0.042788 -0.19684 0.68985 -0.19184 -0.16896 0.062521 -0.58079 0.53867 -0.047079 -0.18872 -0.41493 0.08611 0.41155 -0.042032 -0.10976 0.57911 0.10973 -0.087002 -0.23971 0.15199 0.38625 -0.13959 0.32865 -0.24478 0.080146 -0.10022 0.13149 0.087069 -0.036645 0.15894 0.47115 -0.74455 0.19224 -0.05558 -0.68715 -0.45435 0.07244 0.29671 0.10392 -0.51352 0.21974 -0.25797 -0.33155 1.268 0.066438 0.062703 -0.19984 0.41646 -0.18893 -0.18923 -0.12365 -0.17767 -0.44018 0.32137 -0.22722 -0.11984 0.31747 -0.040476 -0.34174 0.042781 0.1475 -0.40583 -0.35039 0.054043 0.19097 0.01468 -0.052174 0.26046 -0.14838 -0.1558 0.09506 -0.51158 0.22609 -0.033263 -0.3593 0.37866 -0.41826 -0.13255 0.39903 -0.050922 0.14479 0.20151 0.27416 -0.098868 0.14131 -0.384 -0.060286 -0.18147 0.40286 -0.44381 0.059797 0.14446 -0.0027117 -0.76219 -0.041137 0.30337 -0.37066 -0.26971 0.35849 0.17371 -0.18213 -0.11694 0.25508 0.30916 0.018258 0.029827 -0.40064 -0.4317 0.41088 -0.083397 -0.22538 -0.24435 
mercedes 0.28443 0.59586 -0.093373 -0.3525 -0.095563 0.39162 -0.27622 -0.062554 0.44939 -0.077916 -0.63129 -0.015216 -0.11472 -0.63705 -0.26507 -0.031522 0.24917 0.25899 -0.016599 -0.74965 -0.46472 0.94446 -0.41988 -0.57052 -0.83498 -0.3925 0.049448 -0.17696 0.24137 0.3027 0.71016 0.27794 -0.24687 0.34833 0.58612 0.21646 0.0017041 0.70815 0.066588 0.19489 -0.13614 -0.71379 0.34367 0.01471 0.72014 -0.33145 0.076019 0.07021 0.023659 -0.10022 -0.55635 0.68434 -0.24214 -0.40859 0.08362 -0.87365 -0.34984 0.24051 0.080481 0.09777 0.34728 0.35879 -0.34184 -0.5282 -0.31904 0.41157 -0.23542 -0.12621 0.17557 -0.2852 0.20607 -0.38322 0.015584 -0.22245 -0.28906 0.35927 0.53941 -0.20649 0.22927 -0.016004 -0.31958 -0.4851 -0.063919 -0.36722 -0.50189 1.0204 -0.35076 0.51019 -0.066078 0.36766 -0.65192 -0.23441 0.21378 0.42844 0.50934 -0.042185 0.0085325 0.56996 -0.086116 -0.2072 -0.31353 0.43012 0.0055787 0.45791 -0.4036 0.46653 0.69894 -0.076523 1.1818 0.17354 -0.049461 0.066586 -0.15592 -0.27325 -0.52871 0.098262 -0.44297 -0.24926 -0.19801 0.16852 -0.24782 0.24733 -0.1196 -0.20246 0.05759 -0.56901 0.63435 -0.39602 0.25871 -0.22019 -0.18791 -0.71304 0.043186 -0.27568 -0.10282 -0.044102 -0.18792 0.15656 0.13004 -0.50587 -0.25259 0.16789 0.14803 -0.0612 0.44245 -0.24984 0.41736 -0.36947 0.40494 0.11626 -0.23711 -0.097164 0.22712 0.45781 0.047687 -0.43072 -0.48442 0.19568 -0.51773 -0.73588 -0.60633 0.098325 -0.14045 -0.2471 -0.29316 -0.14888 -0.28166 0.14778 -0.571 0.14479 -0.14994 -1.1848 0.53688 -0.12763 -0.1401 -0.38969 -0.3666 0.54472 0.024595 -0.014671 0.49816 0.32878 -0.069929 -0.36536 0.15375 0.099814 0.084869 0.70783 0.0024533 0.34506 -0.19035 -0.42886 -0.34485 0.4905 -0.53924 -0.26228 0.02119 -0.50167 0.12572 0.27168 -0.11855 0.33194 0.20429 0.018413 -0.079734 0.099642 0.49794 -0.087965 0.15176 0.26917 0.094237 0.26845 -0.22454 0.53834 -0.29151 0.020303 0.9869 -0.073264 0.24405 -1.3997 -0.5905 -0.30236 -0.92834 0.46012 -0.24202 0.44561 -0.58824 -0.43907 -0.25746 0.054118 -0.62424 -0.019237 0.098083 0.45708 0.062114 -0.019629 0.069015 0.078561 -0.26064 -0.12692 -0.3524 0.14501 -0.21846 0.46598 0.32096 -0.29871 0.17134 -0.63532 0.29131 -0.21598 0.22364 0.28641 0.17088 0.12211 0.19975 0.49606 0.33309 -0.1247 -0.13309 0.26844 -0.23239 -0.1871 0.020032 -0.091016 0.7019 0.3158 -0.17374 -0.18706 -0.034408 0.47304 -0.066356 -0.56765 0.37984 0.20305 -0.31674 1.2635 0.59225 0.20278 0.50248 -0.019452 0.40904 -0.23854 -0.14264 0.003978 0.11444 0.14137 0.38904 0.07932 -0.19252 0.20225 0.19305 -0.091996 -0.027672 0.60259 -0.54866 -0.17555 0.052684 -0.21081 0.15761 -0.2078 
hiszpania 0.82994 -0.13302 0.18966 -0.33387 -0.0506 0.075092 -0.068348 0.071073 -0.31724 -0.6876 -0.060132 -0.046777 0.28385 0.21061 -0.058639 0.32057 -0.60929 0.26286 0.29814 -0.10482 -0.040552 0.56708 -0.20839 -0.19728 -0.22289 0.13321 -0.03457 0.064357 -0.11489 0.43138 -0.18324 0.58442 0.31947 0.021424 -0.098376 0.29857 0.25632 0.72491 0.10467 0.14084 0.082939 -0.67805 0.36763 -0.003166 0.051333 -0.73347 0.13002 0.051521 -0.095311 -0.26878 0.22658 0.13386 0.39081 0.23288 -0.035431 -0.078233 0.3919 -0.16516 -0.21659 0.34557 -0.011735 -0.22308 -0.34094 0.43014 0.23047 -0.052002 0.17061 0.0054377 -0.14894 -0.68321 0.010612 -0.3426 -0.098152 0.093393 0.0075323 -0.52227 -0.29449 -0.4651 0.080679 0.18026 -0.195 0.17259 -0.33539 0.044161 -0.38867 -0.3591 0.0098601 -0.089575 -0.10775 -0.13969 0.0079478 -0.23993 -0.57062 0.091741 0.3379 -0.27046 0.12051 -0.22013 0.028001 -0.60228 -0.40426 0.28624 0.23801 0.20196 0.30398 0.11826 0.32822 -0.40966 -0.3007 -0.00076872 -0.30283 -0.094642 -0.19642 -0.33415 0.19014 -0.043419 -0.17344 0.015043 -0.47543 -0.39606 -0.26312 -0.26934 -0.41637 0.47728 -0.11807 0.32381 0.65699 -0.18487 0.38663 0.43043 0.30913 -0.085564 0.084463 0.7231 -0.34342 -0.50505 0.45007 -0.21387 -0.06296 -0.24674 -0.34572 0.38562 0.30539 0.51865 0.1129 -0.07858 0.20057 -0.34596 0.46881 -0.13182 -0.56907 -0.28447 -0.33125 0.2189 0.15272 -0.12019 -0.025052 0.23064 0.10104 -0.55283 0.20518 0.095622 0.47088 0.14041 -0.67668 0.1839 -0.12662 -0.15759 -0.14091 -0.13416 -0.28319 0.058985 0.42186 -0.15688 0.20425 -0.13835 0.50484 0.19864 -0.29318 0.2234 0.035243 0.43451 -0.26418 -0.13133 0.10025 0.24052 0.28486 -0.017549 -0.37062 0.042807 0.14189 -0.47611 0.080871 0.041708 -0.64723 0.27019 -0.10703 -0.51401 -0.12185 -0.21351 0.64379 0.46491 0.31971 0.051925 0.31866 -0.49377 0.20156 -0.17671 0.27278 0.49366 -0.33235 0.0093904 -0.11028 0.25815 0.42862 0.23932 -0.2644 0.21887 0.38308 -0.50219 -0.32235 -0.20656 -0.51715 -0.14367 0.11831 0.91499 0.022249 -0.40244 0.36036 0.30587 -0.35318 0.5982 -0.18142 -0.022723 -0.27444 0.0073678 -0.1108 0.39857 0.27894 0.1123 -0.26047 0.29672 -0.088044 0.11677 0.25984 -0.26892 0.24304 -0.42583 0.49607 -0.10651 -0.15342 0.005605 0.13464 0.25455 -0.060943 0.10953 -0.33103 -0.44711 -0.041602 -0.54198 0.43227 0.0982 -0.10143 0.16355 0.22848 0.20253 0.059491 0.075522 0.0020053 0.035777 0.12123 -0.58651 0.3757 -0.09762 -0.1687 -0.10956 0.67981 0.085371 0.47881 -0.21835 0.20649 -0.7812 0.46562 0.23919 -0.082683 -0.4934 0.54266 0.31876 -0.42146 -0.79081 0.14419 -0.06143 0.097612 -0.0089987 -0.070842 -0.04482 0.36451 0.28785 0.51429 0.30298 
praga 0.40334 0.22755 -0.13783 -0.62638 -0.11433 0.23003 0.29396 0.10919 0.22877 -0.45862 0.24803 -0.5131 -0.34491 -0.19876 -0.090045 0.67247 -0.085029 0.26848 -0.18764 -0.091306 0.101 0.0013776 -0.39098 0.22967 -0.48059 0.16124 -0.18117 0.38874 0.14136 0.088495 -0.72217 0.1187 0.09096 -0.16711 -0.20881 -0.037894 -0.12827 0.14161 -0.26664 -0.033835 0.061864 -0.39899 0.13115 0.35973 0.037272 -0.74633 -0.30599 0.2716 0.026948 -0.035448 0.409 -0.27526 0.18589 0.061502 0.45724 -0.31374 -0.092093 -0.31281 -0.26953 0.33088 -0.38587 -0.3733 -0.16972 -0.44003 -0.12435 0.25669 0.27456 0.021841 -0.45825 -0.45609 0.29876 0.093529 0.26188 -0.45261 -0.20462 0.15452 0.87287 -0.30456 0.019104 0.52594 -0.29477 -0.25812 -0.17663 0.0044232 0.26437 -0.24387 0.20471 -0.031161 0.45987 -0.0033735 -0.16296 -0.20084 -0.37523 -0.071292 -0.061241 -0.29937 -0.0067967 -0.13108 -0.379 0.06769 -0.76765 -0.011414 -0.29834 0.65302 -0.14368 0.41818 -0.30072 -0.24703 -0.065653 -0.78396 -0.22289 0.40914 -0.4927 0.19741 -0.0035006 0.66751 -0.57833 0.33522 0.23293 -0.014271 0.65577 -0.11463 -0.021182 0.45822 -0.17756 -0.079231 0.51917 -0.37001 0.059966 -0.07345 0.42091 0.32394 0.27927 -0.45677 -0.53407 -0.26393 -0.623 0.49208 -0.040349 0.21872 -0.5147 0.21997 -0.02412 0.48916 0.38372 -0.051553 -0.44354 0.50389 -0.071697 -0.25684 -0.40353 -0.2893 -0.16947 -0.10038 0.16227 0.13915 -0.23791 0.17664 -0.060254 0.36339 0.023323 -0.52526 0.21788 -0.43165 0.51885 -0.3857 0.30548 0.080378 -0.12713 0.3459 0.18788 0.11574 0.051067 0.17131 -0.50819 -0.10429 -0.43971 0.50401 -0.45538 0.48488 0.19359 -0.31347 0.78359 -0.30576 0.13197 -0.23183 0.081832 -0.12054 -0.37841 0.35497 -0.27315 0.13756 -0.014007 0.29383 0.0093807 0.32242 0.17239 -0.34598 0.11199 -0.40912 0.13508 0.14718 -0.16054 0.023456 0.065183 0.093413 -0.01296 -0.32836 0.23064 0.6895 0.098406 0.20366 0.28226 0.006805 0.56768 0.64905 0.10696 -0.41487 0.37386 -0.36433 -0.11228 -0.052913 0.427 -0.020275 -0.4733 0.53049 -0.12731 0.075924 0.056583 0.13297 -0.3721 0.19725 -0.20237 0.30824 0.13106 -0.93856 -0.3632 0.3062 -0.089276 0.36024 0.37901 -0.0033292 -0.25179 -0.17488 0.29893 -0.29728 0.043413 -0.41145 0.16612 -0.14633 0.24927 -0.13995 -0.21437 -0.003498 -0.0073639 -0.25042 -0.48603 -0.0027223 0.077331 -0.1932 -0.2877 -0.18211 -0.8006 -0.34489 0.35064 -0.068366 -0.057172 0.13687 0.15505 0.38435 0.076043 -0.64292 0.51247 0.16801 -0.35787 0.53469 -0.34757 -0.26324 0.23735 -0.2066 0.33794 -0.25607 -0.026737 -0.26539 -0.37148 0.071254 0.66661 0.39193 0.45011 -0.72317 -0.31407 0.21594 -0.17794 -0.50203 -0.66492 -0.53386 -0.06802 0.01079 0.57019 -0.40532 
rzym 0.095092 -0.26586 0.16044 -0.046291 0.06261 0.27569 -0.098649 0.036378 -0.41167 -0.68053 0.063084 -0.19751 -0.15286 0.1496 -0.38516 0.31105 0.29457 -0.051487 -0.031894 0.14992 -0.06288 0.085756 -0.072947 0.39168 -0.77445 0.23918 0.1782 -0.22992 -0.1047 0.51686 -0.44321 0.18727 0.30374 -0.067919 -0.11016 0.54617 -0.34544 0.035265 0.14859 -0.016897 -0.14775 -0.28797 -0.36256 -0.4017 0.86839 -0.31836 -0.17124 -0.524 -0.019262 -0.32827 0.64263 -0.0056153 0.3586 0.045425 0.1925 -0.031063 0.34682 0.14113 0.20811 0.9406 0.196 0.062325 -0.59333 -0.0047801 -0.13982 0.19284 0.32291 0.40932 -0.19889 -0.045204 -0.5549 0.24916 0.06264 -0.30718 0.14745 -0.38622 0.35184 -0.18636 -0.027112 0.44934 -0.36803 -0.075155 0.22491 -0.018803 -0.2307 0.25795 -0.036718 -0.46522 0.010452 0.27468 0.23091 0.40006 -0.27343 0.061886 -0.26152 0.24866 -0.10117 -0.063416 -0.18456 -0.074126 -0.30294 -0.42893 0.35615 0.1775 0.39905 0.47282 -0.37979 -0.44817 -0.044884 -0.098257 -0.17421 0.3236 -0.74106 -0.19506 0.19846 0.37232 -0.4482 0.36355 0.065777 -0.064555 0.17386 0.075666 -0.10247 0.70711 0.1648 -0.13886 0.80465 0.0086187 -0.046766 -0.21686 -0.12259 0.46402 0.076192 0.23674 0.015397 0.081552 -0.29953 -0.084674 0.020655 0.116 -0.23664 0.27274 -0.078989 0.085911 0.11 0.49694 -0.21754 0.095011 -0.24359 0.92933 -0.59567 -0.38046 -0.083219 0.0032845 0.0026499 0.0077912 -0.025645 -0.49467 -0.26406 0.10736 0.54418 -0.11742 0.35247 -0.064565 0.076186 -0.3178 -0.037817 0.056969 -0.20684 -0.098458 0.057032 0.26862 0.17056 -0.13403 0.36474 0.25588 -0.41854 0.30799 -0.46688 0.10968 0.95484 -0.074359 0.088026 0.27437 0.50338 -0.10202 0.63224 -0.21711 -0.44761 0.34424 -0.026862 0.072813 0.29189 0.1014 -0.042781 -0.18318 -0.026967 -0.40686 0.058796 -0.01896 0.1976 0.26324 0.31021 0.20673 0.34443 -0.18092 0.10572 -0.17431 -0.04634 0.34394 -0.40952 -0.049549 0.24667 -0.35204 0.65615 -0.14768 0.471 -0.36009 0.39658 -0.096005 0.36699 -0.40432 -0.049697 -0.17025 0.1537 0.0087464 -0.12072 0.018157 -0.16699 0.031054 -0.13331 0.61913 0.048992 -0.027165 0.076204 -0.24673 -0.18576 0.13525 0.37458 0.4622 0.39518 -0.48243 -0.046264 0.16732 0.10045 -0.017805 0.065033 -0.37379 0.87476 -0.082147 -0.23592 0.22773 -0.087018 0.012606 0.47992 -0.0073046 0.1802 -0.22916 -0.017548 -0.36593 0.32849 -0.11034 0.017848 0.29375 0.28494 -0.12882 0.080499 0.088816 -0.025095 -0.34506 0.11211 -0.34693 0.29625 -0.2325 -0.16973 0.065742 0.65127 -0.42601 0.88028 -0.25705 -0.080841 -0.1265 0.0022821 -0.23289 -0.52273 0.078241 0.78631 0.042635 0.25409 -0.23885 -0.1643 -0.13516 -0.18166 0.06204 -0.36973 -0.036224 0.77169 0.12331 0.35514 -0.63977 
barcelona 0.18673 -0.078353 -0.21064 -0.47024 -0.22519 -0.41653 -0.2128 0.16604 -0.26208 -0.80144 0.15395 0.20453 -0.24429 -0.14363 0.29775 0.76674 -0.14091 0.21948 0.11695 -0.32179 -0.018541 0.50681 -0.54218 0.17188 -0.46981 0.17815 -0.080171 0.043716 0.3508 0.4238 -0.50017 0.49822 0.28463 -0.1582 0.14709 0.45036 0.03213 0.25774 -0.3346 0.035565 0.0054764 -0.97292 0.64211 -0.079373 0.34137 -0.23728 0.052777 0.26092 0.46035 -0.50113 0.43381 0.031462 0.80309 0.20171 0.068893 -0.26339 0.16748 -0.57117 0.15288 0.10662 -0.055414 -0.25489 -0.042823 -0.2108 -0.079702 0.48007 -0.1287 -0.14635 -0.44031 -0.53251 -0.068745 -0.073216 0.26562 -0.55375 -0.13826 -0.23777 0.11639 -0.50008 0.0591 0.35558 -0.14501 -0.13656 -0.42357 -0.34668 -0.32406 0.1783 -0.30154 -0.24271 -0.22694 -0.22639 -0.11212 0.11484 -0.3593 0.1642 0.17062 -0.12085 0.068524 0.1246 0.051732 -0.10681 -0.53793 0.20528 0.077597 0.27369 0.25803 0.52209 0.21269 -0.45432 0.3796 0.10363 -0.31945 -0.13484 -0.38892 -0.29634 0.099625 0.34174 -0.27557 0.25862 -0.020317 0.038693 -0.18591 -0.36895 0.09398 0.69438 0.20033 -0.10785 0.5514 0.54206 0.50508 0.11146 0.44268 -0.35896 -0.10051 0.11928 -0.26584 -0.10121 -0.13525 -0.12666 0.51365 0.0004938 -0.34469 0.3314 0.19935 0.12664 0.073883 -0.080636 -0.040431 -0.40021 0.25537 -0.063742 -0.29726 -0.22249 -0.29019 0.23598 0.02766 -0.57388 -0.33123 0.23881 -0.08931 -0.22777 0.36138 0.16381 0.4739 0.37571 -0.40381 0.010249 -0.065429 -0.21014 -0.4949 -0.045424 0.27397 0.25599 0.28583 0.23213 0.39288 0.065304 -0.2695 -0.24685 -0.11093 0.15498 0.69114 0.36376 -0.067661 -0.18538 0.19342 0.35733 0.46416 -0.58923 -0.25662 0.65119 -0.33745 -0.61603 0.36483 -0.23322 -0.20942 0.19762 0.29158 -0.11699 0.27719 -0.30171 -0.061452 0.60633 0.67177 -0.17944 0.47829 -0.14424 0.25441 -0.7206 0.064245 0.25795 0.0075935 0.24531 -0.48452 -0.061425 0.27784 0.10024 0.25431 -0.14652 0.13336 -0.30923 -0.10711 -0.064098 -0.071601 0.20836 0.070932 0.7541 0.31493 0.013129 0.2263 -0.19399 0.049332 0.30323 -0.11451 -0.24602 0.25725 -0.13179 0.24522 -0.16976 -0.27368 0.17434 0.21766 -0.1732 0.1051 0.35693 0.073998 -0.30379 0.62838 -0.42834 0.84051 -0.33992 -0.066194 -0.040777 0.016145 0.13564 0.17025 0.0125 -0.19536 -0.44439 0.30506 -0.36932 0.099325 -0.0093133 0.84779 -0.55461 0.20501 -0.0063502 0.21431 0.18108 0.18356 -0.023795 -0.030443 -0.60551 0.57722 -0.18932 0.049158 -0.024868 0.20751 0.38487 1.0487 -0.47549 0.45275 -0.47253 0.1358 0.090375 -0.02808 -0.08495 0.52592 0.44127 -0.032559 -0.22628 0.22596 0.22786 0.14592 -0.1257 -0.43025 -0.29693 0.3308 0.15376 0.17677 -0.10587 
bmw 0.56038 0.05767 0.20307 -0.38272 -0.17925 -0.073584 -0.18789 0.3529 -0.27726 0.17383 -0.25701 0.37016 -0.31462 -0.40738 0.28248 -0.32565 0.23601 0.32102 -0.24089 -0.24169 -0.088432 0.35297 -0.093847 -0.38438 -0.58265 -0.16462 -0.2894 -0.013083 0.51889 0.57213 0.30712 0.34959 -0.16043 -0.12392 0.48989 0.15592 0.41179 -0.043055 0.61274 0.18497 0.032554 -0.33152 0.060764 0.12063 0.88534 0.096638 0.12754 -0.51256 -0.30829 -0.18909 -0.654 0.41685 -0.084671 -0.33063 -0.011868 -0.76754 -0.58314 -0.058189 0.072715 0.012095 -0.16094 0.15141 -0.1582 -0.82236 -0.12512 0.14355 0.021226 0.053775 0.13849 -0.16252 0.29092 -0.1983 0.25475 -0.47815 0.37101 0.17598 0.43958 -0.47146 0.31326 0.41491 -0.232 -0.49667 -0.16656 -0.21554 -0.36464 0.29929 -0.050064 0.54298 0.22603 -0.043313 0.14246 -0.11101 -0.46255 0.49498 0.11512 0.33989 0.005695 0.29423 -0.10909 -0.54649 -0.23514 -0.17088 -0.49959 0.57878 -0.52466 0.24239 -0.091714 -0.23035 0.58105 -0.22586 -0.29901 0.465 -0.095466 -0.24014 0.2695 0.55577 -0.69745 -0.014607 -0.24802 -0.005264 0.30689 0.46902 0.29774 0.17316 -0.21902 -0.78677 0.30886 -0.44915 -0.010694 -0.4061 -0.22021 -0.10346 -0.036735 0.094172 -0.44899 -0.36123 -0.11758 0.56537 0.18124 -0.3212 0.16821 -0.39314 0.48815 -0.088866 -0.056579 -0.67669 0.53195 -0.1905 -0.060069 -0.19152 -0.35412 -0.4188 -0.22276 0.098206 0.063678 -0.32584 -0.49305 0.47621 -0.20034 -0.27315 -0.22933 -0.022481 0.18234 -0.087946 -0.2258 0.065406 -0.53134 0.15934 -0.37195 0.10813 -0.27842 -0.49495 0.11312 0.040795 -0.27784 0.32991 -0.23525 0.5649 -0.077666 -0.21342 0.20023 -0.067499 0.2376 -0.23185 0.45351 0.095722 0.22404 -0.12963 -0.27042 0.16043 -0.33974 -0.23684 -0.22674 0.052699 -0.85926 -0.32872 0.49827 -0.41483 -0.31927 0.16624 0.1394 0.61105 0.39082 -0.49346 0.087198 -0.10567 0.71319 -0.43089 0.44254 0.44667 0.30638 0.46628 -0.12405 -0.29513 -0.071232 0.38785 0.72984 0.14796 0.17678 -0.75397 -0.20202 0.29941 -1.1373 0.24212 -0.37418 1.0242 -0.1492 -0.15226 -0.14386 -0.37605 0.22671 0.41886 -0.26236 -0.063297 0.18484 -0.23669 -0.24985 -0.092213 0.089419 0.085491 0.42187 -0.33368 -0.13651 0.20957 0.49793 -0.47079 0.16927 -0.11821 0.51192 -0.12869 -0.18988 -0.39789 -0.031176 0.19695 -0.20834 0.35036 0.27654 0.034776 0.23612 0.28923 -0.39605 -0.033206 -0.051414 -0.029043 0.48435 0.5145 -0.63485 -0.7483 -0.18201 0.34689 0.33094 0.037981 0.84519 -0.10956 -0.47867 0.92664 0.013512 -0.16278 0.14691 -0.29389 -0.12102 -0.43816 -0.08827 -0.10532 0.2788 0.23913 0.18664 0.22359 0.075699 0.69875 0.34421 -0.78918 0.30918 0.72801 -0.33832 -0.53649 0.082542 -0.40617 0.47074 -0.40472 
czechy 0.41496 -0.053671 -0.13296 -0.26835 0.29812 0.55304 0.080866 -0.10665 -0.10569 -0.41983 0.086065 -0.39166 0.36173 -0.22775 0.12527 0.46162 -0.1854 0.24498 -0.044022 0.35777 -0.099591 0.18291 -0.20082 -0.050125 -0.26169 -0.38787 -0.088083 0.025602 -0.29315 0.49747 -0.38485 0.57107 0.17523 -0.14949 0.062642 0.082868 -0.0069419 0.62387 0.14751 0.31191 -0.041528 0.11331 0.2393 0.31877 0.53236 -0.77084 0.38533 -0.15156 -0.59565 -0.11507 0.075497 0.16603 0.11594 0.32143 0.46959 -0.13476 0.2197 0.027929 0.050572 0.036564 0.13102 -0.26378 -0.29847 0.4609 0.13479 0.099561 0.14637 0.15489 -0.39179 -0.58236 -0.18412 0.050627 0.013235 0.018784 -0.079387 -0.16862 0.71243 -0.35172 -0.21429 0.241 -0.010219 -0.19444 -0.32236 0.046641 -0.25031 -0.45601 0.49868 0.23648 0.34005 0.084116 0.11317 -0.61713 -0.56537 0.062326 -0.012909 -0.086441 -0.36095 -0.022107 0.32068 -0.23064 -0.69516 -0.1541 0.040914 0.4424 0.28547 0.15576 -0.19657 0.050837 -0.61767 -0.16851 -0.4624 0.17048 -0.37754 0.44707 0.20217 0.38278 -0.53367 -0.13394 -0.64516 -0.51466 -0.062298 -0.15099 -0.39623 0.32436 0.033326 0.47178 0.35544 -0.71691 0.27456 0.6677 0.090409 -0.12754 0.2771 0.32703 0.06839 -0.67854 -0.27956 0.21224 -0.31557 -0.00097516 -0.5647 0.62369 0.027749 0.81811 0.10714 0.0032267 -0.040547 -0.027427 0.40811 0.10392 -0.18912 -0.36235 -0.15934 -0.071428 0.39022 0.35248 0.27078 0.52221 0.10628 -0.21795 -0.088603 -0.46011 0.15137 -0.1135 -0.16388 0.017538 -0.12058 -0.13302 -0.17148 -0.13104 0.14544 0.43745 0.071687 0.21278 -0.20523 -0.034533 0.12367 0.44983 -0.50956 0.60043 -0.092842 -0.14854 0.47477 -0.31854 0.31976 0.035911 -0.0085486 0.3574 -0.30687 -0.11369 -0.197 0.37494 -0.17977 0.15049 -0.28746 0.44083 -0.092334 -0.69928 -0.0041342 0.019779 0.49739 0.12732 -0.17701 0.080153 0.15422 -0.091068 0.45055 0.092564 0.62799 0.7518 -0.41937 0.092984 0.29187 0.070114 0.68045 0.31048 0.070834 -0.036666 0.42248 -0.26949 0.25754 0.084518 0.18836 -0.41259 -0.45264 0.22796 -0.16231 -0.33525 0.10054 0.34196 -0.39021 0.083797 -0.43396 0.060555 -0.17312 0.14558 -0.27442 0.49318 -0.31575 0.34226 -0.2648 0.073375 -0.18896 -0.12489 0.47549 -0.25713 -0.25517 -0.70084 0.039993 -0.2618 -0.0065164 -0.34294 0.17057 0.33473 0.13623 -0.034369 -0.20532 0.093355 -0.25206 -0.35438 0.1513 -0.11982 -0.35889 0.46702 0.21209 -0.041778 0.17284 -0.47877 -0.084938 0.11145 -0.18683 -0.6669 0.25142 -0.28331 -0.31131 0.075524 0.0017428 -0.41922 -0.029634 0.13996 0.39197 -0.73661 0.078946 -0.30468 -0.30159 -0.067131 0.41445 0.017143 0.22922 -1.0798 -0.31695 0.20046 0.18436 -0.23806 -0.011362 -0.15251 -0.16981 0.13569 0.29757 0.099771 
ateny -0.0026565 0.0049536 0.16188 -0.55482 0.30351 0.61326 0.21688 0.25964 -0.082117 -0.60929 0.070067 -0.24381 -0.14027 0.19974 -0.35865 0.021553 0.059073 -0.0051356 0.048827 0.16288 -0.18781 0.40756 -0.57475 0.099342 -0.22452 0.43871 0.15023 -0.12733 0.35267 -0.048243 -0.21463 0.50592 0.57256 -0.69048 0.43396 -0.30126 -0.58218 0.37115 -0.20332 -0.071596 0.17375 -0.45751 -0.089086 -0.031856 0.53923 -0.46343 0.009134 -0.8058 0.027404 -0.41376 0.024065 -0.15672 0.58155 0.60824 -0.024428 -0.40023 0.040151 0.29747 0.3874 0.34681 0.095991 -0.19214 -0.54055 0.12765 -0.47361 0.69306 -0.1018 0.10166 -0.66116 0.1961 -0.020838 -0.23442 0.22068 -0.70557 0.21753 -0.62663 0.12182 -0.78778 0.16237 -0.22415 -0.087765 0.076657 0.12833 -0.021984 -0.42021 0.38627 0.19864 -0.20224 -0.10012 0.36664 -0.097577 -0.070555 -0.55332 -0.34431 -0.054567 -0.48118 0.11621 0.0058751 -0.40089 -0.10645 -0.21376 0.28702 -0.29033 0.055934 0.23014 0.15258 0.069176 -0.52057 0.35403 -0.41321 -0.079118 0.25736 -0.41453 -0.24958 0.021781 0.5245 -0.706 -0.20806 0.15157 0.63825 -0.081149 -0.079465 0.13835 0.18672 0.13417 -0.092825 0.69809 -0.38174 0.20568 -0.076937 0.29515 0.072358 -0.27986 -0.47372 0.30499 -0.099297 -0.30106 0.23616 -0.2516 0.4694 -0.34372 0.18052 0.22121 -0.12664 -0.18241 0.29488 0.08235 -0.59587 -0.10258 0.29622 -0.5965 -0.65952 -0.22723 0.44334 0.02531 -0.24128 0.35655 -0.57324 0.049259 -0.22235 0.29916 0.096594 0.30437 0.047386 0.34303 0.07752 -0.46649 -0.098019 -0.57105 -0.3285 0.26437 0.060673 0.49446 0.073477 0.27302 -0.4026 -0.65076 0.15798 -0.37951 0.58247 0.59822 -0.27864 -0.38488 0.04077 0.35842 0.35654 0.25656 0.033324 -0.14902 0.5976 -0.092382 0.3418 0.58436 -0.41265 0.11302 -0.4813 0.40416 0.099983 0.25848 0.31688 -0.50564 0.35354 0.40393 -0.10897 0.24724 0.36599 0.30534 -0.41896 0.38069 0.44194 -0.63567 -0.15075 -0.2557 0.08862 -0.33875 0.33761 0.017679 -0.1932 0.3169 -0.11594 0.32687 -0.33125 0.07812 0.048361 0.26778 0.14053 0.48531 0.43645 0.62533 -0.00097254 0.16098 -0.25387 -0.077702 0.23758 0.17123 -0.21383 -0.92473 0.079892 0.24251 0.36553 0.31463 -0.49898 0.13421 0.21239 -0.12506 -0.079765 0.72071 -0.059828 0.18562 -0.28288 0.33432 0.081449 0.053801 -0.083115 0.40145 0.31337 0.22931 -0.16119 -0.23238 -0.29353 0.33227 0.18073 -0.25562 -0.19086 0.75677 -0.34059 0.42268 0.24082 -0.31294 0.511 0.15919 -0.03549 0.22057 -0.66236 0.38985 0.095428 0.27708 0.17093 0.57558 -0.28995 0.30609 -0.13555 0.086567 -0.31182 -0.87303 -0.093725 0.77685 0.36428 0.25654 -0.45148 -0.18298 -0.42189 0.26313 -0.42836 -0.62125 -0.19827 0.45204 0.10208 0.8989 -0.3172 
fiat 0.10231 0.24651 -0.39892 -0.39381 -0.15202 -0.11236 -0.22743 -0.22512 -0.29496 0.25413 0.23498 0.093388 -0.08298 -0.24981 -0.03179 0.0062889 -0.065974 0.39542 0.28843 -0.32918 -0.45745 0.4453 0.049331 -0.76355 -0.6128 -0.28849 -0.48665 0.11038 -0.39317 -0.10854 -0.17992 0.13682 0.47095 0.12843 0.071322 -0.18808 -0.25523 -0.074732 0.0062621 -0.24018 0.12602 -0.24965 0.28757 0.21325 1.0335 -0.28086 -0.32563 -0.25862 -0.086471 -0.30912 -0.69036 0.15754 -0.61539 -0.080178 0.11035 -0.56811 -0.56896 0.048705 0.15172 0.13665 -0.28996 0.50049 0.23652 -0.26702 0.12352 0.57662 -0.048206 -0.085699 0.10341 -0.079665 0.017444 0.25465 -0.085973 -0.39117 -0.098143 0.27773 0.43243 -0.53801 -0.055827 0.46594 -0.069404 -0.53212 -0.33575 0.030927 0.13606 0.17579 -0.8495 0.10809 -0.40356 -0.013594 -0.25905 -0.6616 -0.37011 -0.054192 0.053066 0.28288 -0.016501 0.60174 0.047968 -0.4041 -0.48006 -0.01416 -0.055408 0.35259 0.23428 -0.28664 -0.58866 -0.30947 0.70483 -0.030357 0.032922 -0.30033 -0.40176 -0.15762 0.093783 0.41395 -0.66592 -0.29909 0.11952 0.15264 -0.070501 0.33404 -0.18448 0.57461 -0.26008 -0.6303 -0.24966 0.046836 -0.11738 -0.26516 -0.54625 -0.33602 0.25292 -0.21095 -0.57134 -0.23836 0.16823 -0.051991 -0.35068 -0.39702 -0.25624 -0.23535 0.21142 0.031497 -0.035579 -0.039649 0.015753 0.010134 0.036313 0.27128 0.37182 0.13609 -0.043152 -0.087609 -0.41019 -0.42908 -0.53138 0.030358 -0.64391 -0.37412 0.027418 -0.2427 0.19638 -0.35071 -0.12936 -0.51609 -0.19693 -0.10232 -0.25111 0.0057965 0.3215 -0.043033 0.038201 0.012147 0.10175 -0.16659 -0.026311 0.13259 -0.22231 -0.055375 0.19992 -0.072548 -0.33769 0.011561 0.12271 0.58722 0.051436 -0.0003742 -0.12426 0.077683 -0.18928 0.16333 -0.16695 0.31585 -0.073606 -0.5063 -0.15905 -0.35294 -0.57991 0.26923 -0.22366 0.12902 0.61924 -0.4879 0.35459 0.14054 0.56005 0.24174 -0.1727 -0.032345 0.22082 0.35094 0.37517 0.0031804 0.16434 0.45714 0.46375 0.04624 0.021186 -0.66121 -0.13122 0.16183 -0.96872 0.70001 -0.27023 0.42185 0.013695 -0.0015941 0.23954 0.27254 -0.2947 0.10434 -0.45641 -0.0099502 -0.30083 0.074866 -0.68583 0.20148 -0.32669 0.69468 0.40511 0.04594 -0.43006 0.15467 -0.062691 -0.14624 0.080632 -0.61664 0.49912 -0.30755 -0.2922 -0.38418 0.16491 -0.0027854 0.31936 0.42691 -0.0014579 -0.10111 0.17221 0.50823 0.085753 0.11589 0.10086 0.50473 0.59282 0.6046 -0.50038 -0.075729 -0.51831 -0.053726 0.43865 -0.70184 0.22528 -0.37762 -0.45471 1.3365 0.45639 -0.15066 0.053027 -0.098837 0.19063 0.18002 0.12598 0.051383 -0.078347 -0.31117 0.11164 0.12302 0.079358 0.26117 -0.095129 -0.46837 0.18248 -0.18794 -0.868 -0.23556 0.84112 -0.80658 0.38112 -0.74678 
pies 0.017569 0.57976 -0.049655 -0.81877 0.13823 -0.27426 -0.54577 -0.1068 -0.15784 0.36858 -0.20599 0.21601 0.32883 0.037801 0.29686 0.76444 0.2362 -0.071711 0.3062 0.1538 0.059797 0.064998 0.092272 -0.20751 0.14618 0.13002 -0.31893 -0.33564 0.13367 0.31957 0.15319 -0.37099 0.38481 0.56576 -0.071513 -0.092887 0.26299 0.20304 -0.26242 0.57857 -0.14432 -0.071804 -0.30098 -0.24614 0.56211 -0.27667 0.21382 0.25889 -0.13293 0.19234 0.23465 -0.2238 -0.15497 0.36451 -0.23244 -0.12369 -0.0059908 0.33894 0.51623 0.11267 0.17195 -0.45691 -0.072136 0.27782 -0.30795 0.035112 0.22604 -0.082336 -0.49568 0.021975 0.066796 -0.29162 -0.3524 0.047157 0.63753 0.20664 -0.4443 -0.3196 -0.071124 0.064207 -0.35689 -0.62367 0.00089294 0.17335 -0.2085 -0.067977 0.011171 -0.033128 0.035947 -0.12693 -0.17179 -0.12976 -0.80427 -0.59086 0.34994 0.19113 0.42818 0.27563 -0.14135 -0.14444 -0.13884 -0.0066411 0.035225 0.56131 0.090309 0.090219 -0.4764 -0.15289 -0.11613 0.027125 0.48259 -0.098971 -0.23198 0.045216 0.076229 0.071171 -0.45559 0.098514 -0.18517 -0.49787 0.21762 0.33537 0.015648 0.30414 0.33354 -0.19176 -0.29599 -0.28674 0.026414 0.029186 -0.00054927 -0.19155 -0.062614 0.16485 0.014072 0.34917 -0.1762 0.28505 -0.26662 0.45079 -0.35591 -0.29695 0.54263 -0.18869 -0.17832 0.16899 0.10964 -0.23912 0.41988 -0.027982 -0.41894 -0.30239 0.094536 0.19539 0.068472 -0.65305 -0.66515 -0.054265 0.086686 0.27755 0.088778 -0.072279 -0.12403 0.12573 -0.19534 -0.19537 0.25549 -0.54158 0.30564 -0.12328 0.19603 -0.098193 0.05916 0.52325 0.13723 0.14247 0.25239 -0.46921 -0.34424 0.1255 0.030275 -0.050903 -0.61476 0.080768 0.13993 0.1391 -0.52056 -0.64681 -0.22222 -0.07704 0.31962 -0.18451 -0.12934 0.052173 0.048556 -0.21538 0.12359 -0.22098 0.10175 0.18846 -0.25059 -0.53082 0.26655 -0.5033 -0.27356 0.46563 -0.0070884 -0.019774 0.0058354 0.58583 0.25123 0.020612 0.046342 0.0029567 0.13527 -0.33866 -0.082497 -0.017823 0.27407 0.18407 -0.48908 -0.06408 -0.25836 -0.66163 0.39641 0.44942 -0.29719 -0.55712 0.32553 0.47851 -0.035084 0.48059 0.2343 -0.087132 0.33831 0.31491 0.33371 0.29228 -0.3693 0.29243 0.11709 -0.47801 -0.16658 0.14415 0.62957 -0.26784 0.33064 -0.14176 -0.47892 0.053864 0.62502 0.048925 -0.34209 -0.078174 -0.20671 0.47149 0.21921 -0.068773 0.28989 0.50311 0.32775 0.0039247 0.011827 0.30169 -0.24844 -0.51724 0.00042462 -0.27609 -0.26951 0.011124 0.1052 -0.15639 -0.025601 -0.30362 -0.49251 0.12552 0.34026 -0.14783 0.18575 0.68695 0.075875 0.22249 0.045204 0.093778 -0.17499 -0.31023 0.49093 0.28835 -0.56947 0.091182 0.14311 0.019 0.27759 0.33939 -0.66136 0.1215 0.85216 0.60285 -0.0030899 0.25258 
kot 0.31981 0.22637 0.39187 -0.76244 0.054521 -0.080699 0.067033 0.099202 -0.51435 0.10924 0.064815 0.14163 -0.079246 0.059103 0.12883 0.69899 0.43125 0.24868 -0.054466 0.079097 0.80352 -0.043193 -0.13086 -0.38991 0.067371 0.12183 -0.037757 0.064703 -0.17221 0.8245 -0.23458 0.14144 -0.24119 0.17606 0.13796 -0.22299 -0.33261 -0.229 0.018294 0.35157 -0.18883 0.42232 -0.36604 0.11841 -0.01165 -0.43456 0.051053 0.22074 0.0683 0.27145 0.11625 -0.33485 0.3676 0.35292 -0.28125 -0.3003 -0.28546 -0.49071 0.56227 -0.016783 0.19204 -0.081478 0.083369 0.14557 -0.078743 0.045262 0.38262 0.17653 -0.26971 0.028057 -0.23551 -0.19589 -0.20878 -0.63575 0.12348 0.17395 0.25535 0.0010326 -0.66945 0.14766 -0.07272 -0.43072 0.33557 0.46242 -0.3942 -0.10992 0.23291 -0.03548 -0.20769 0.098438 -0.38759 -0.12436 -0.81377 0.2542 0.46345 0.4091 0.50796 0.17253 -0.14083 -0.11494 -0.0023335 0.023944 0.070926 0.041364 0.37603 -0.13089 -0.69878 -0.26298 0.23991 0.083407 0.099823 -0.090319 -0.22958 0.2036 0.016087 -0.0015267 0.23537 0.54077 -0.93024 -0.25835 0.24299 0.50495 0.22658 0.027152 0.34932 -0.12239 -0.029281 -0.29182 -0.079649 0.085545 0.27501 -0.38371 0.09549 0.094438 -0.014666 0.39158 -0.19121 0.17723 0.051645 0.32035 -0.67232 0.0099899 0.093004 0.39788 0.066037 0.13496 0.32086 0.21293 0.32579 0.051209 0.00013494 0.15144 0.30219 0.09245 0.037691 -0.21039 -0.44843 0.25758 -0.33528 0.30669 -0.40862 0.19044 -0.18895 0.091247 0.049506 0.12765 0.024472 -0.52659 0.12131 -0.51097 0.10687 -0.34899 0.55753 -0.051852 -0.13443 -0.2327 -0.027865 0.14537 -0.91629 0.017559 0.032694 0.15827 -0.69856 0.35362 0.36583 0.2858 -0.47525 -0.33588 -0.25338 -0.13195 -0.18009 0.44032 -0.29071 0.19088 -0.13012 -0.062906 -0.025568 -0.073446 -0.044342 -0.0067659 0.19376 0.01053 0.21858 0.024638 -0.27597 0.39637 -0.10191 0.31477 0.17071 0.41 0.35906 0.1922 0.11899 -0.28308 -0.24555 -0.42348 -0.048156 -0.62168 0.33596 -0.18558 -0.024808 0.024717 0.068432 -0.42666 0.13456 0.4969 -0.037507 -0.28506 -0.049654 0.084208 -0.1138 0.3707 0.19267 -0.27573 0.17469 -0.21952 0.23964 -0.31495 -0.50819 -0.018191 0.37726 -0.55655 0.19944 -0.34261 0.44654 -0.60914 0.0031144 0.15734 -0.21204 0.36728 0.60079 0.67129 -0.15143 -0.14014 0.059914 0.25823 -0.0073491 0.27724 -0.11469 0.32596 0.1795 -0.4828 -0.032215 0.75187 -0.51216 -0.43499 0.21601 -0.055834 -0.11242 -0.26739 0.044657 -0.43214 -0.38139 -0.5139 -0.61782 -0.051569 0.43593 0.15212 0.039156 0.45255 -0.23885 -0.26409 -0.43756 0.24793 0.15196 -0.062194 0.053304 0.30136 0.025609 -0.28955 -0.193 -0.016355 0.47766 0.013548 -0.75217 -0.31478 0.67917 0.24829 -0.13508 0.30571 
grecja 0.5935 0.10073 0.37693 -0.47016 -0.0099931 0.74915 0.36478 0.36237 0.014411 -0.47606 -0.24654 -0.35672 0.20966 0.35641 -0.37009 0.27465 -0.45631 0.19056 0.15087 -0.23914 -0.11739 0.30649 -0.10531 0.1503 -0.55141 0.080752 -0.13174 -0.21291 -0.17524 -0.022563 -0.2655 0.81013 0.57237 -0.032771 -0.26005 -0.33763 -0.60111 0.55208 0.065231 0.14388 0.003892 -0.51647 0.18413 0.16175 0.058884 -0.44009 -0.12245 -0.84544 -0.10738 -0.24908 -0.072426 0.11574 0.46548 0.44823 0.27834 -0.045735 0.22831 -0.05589 0.39109 0.61955 0.11248 -0.26355 -0.63356 0.47781 -0.5032 0.40523 0.549 0.29528 -0.16852 -0.31395 -0.29253 0.11136 -0.0236 -0.27941 0.21793 -0.060561 -0.06954 -0.68177 -0.096881 -0.30849 -0.15656 0.176 -0.15342 0.083991 -0.49677 0.081091 -0.049613 -0.11507 -0.129 0.33213 -0.17721 -0.30112 -0.91599 -0.38262 0.30793 -0.40658 -0.29435 -0.053235 -0.46193 -0.83269 0.075235 0.025703 0.12376 0.15266 0.37227 -0.14199 0.59721 -0.59853 -0.20531 0.049627 -0.16461 0.085494 -0.17769 -0.041379 0.27941 -0.31455 -0.35736 -0.75402 -0.095681 -0.35121 -0.6056 -0.37156 -0.47819 0.1747 -0.56669 0.60937 0.72475 -0.36173 0.21915 0.11144 0.083346 0.63132 0.20425 0.58356 0.19782 -0.26634 0.0018607 0.16445 -0.15878 0.12309 -0.41187 0.32744 0.10147 0.48662 0.13663 -0.083202 0.31221 -0.37337 0.15 0.38733 -0.83268 -0.741 -0.21224 0.69224 0.27912 0.32429 0.21099 -0.58459 -0.15073 -0.75991 0.54133 -0.060981 0.39053 0.6521 -0.4734 0.14207 -0.41942 0.46994 -0.26153 -0.11553 0.024009 0.31133 -0.054252 0.45121 0.50573 0.012561 -0.12815 0.13665 -0.031549 0.35183 0.17912 -0.21013 -0.091054 -0.5418 0.53599 0.68244 0.15417 0.16013 -0.64323 0.26166 0.10133 0.19555 -0.15363 -0.10006 -0.050777 0.19817 0.026891 -0.04021 0.082853 0.22088 0.097712 0.13706 0.74808 0.38266 0.40263 0.4869 0.23167 -0.20003 0.40467 0.097937 -0.23699 -0.074444 0.11023 0.31141 -0.27752 0.19268 0.12157 0.36082 0.91409 -0.4193 -0.078271 0.004003 -0.55288 0.18724 0.064179 0.56864 0.34686 -0.32035 0.48293 0.1458 -0.13113 0.2083 -0.030353 0.38125 -0.53743 -0.27796 -0.78687 -0.10689 -0.049536 0.31848 0.025438 0.09856 -0.44723 -0.1712 0.22711 0.091749 0.2765 0.30434 0.04478 -0.19861 0.091549 -0.020124 0.29575 0.17942 0.28656 0.25508 -0.23771 -0.16191 -0.31955 -0.8982 0.37208 -0.11707 -0.74882 0.013167 0.2467 -0.091089 0.075502 -0.2931 0.27756 0.19798 0.24416 -0.26204 0.20198 -0.11335 -0.13526 0.30797 0.56768 0.0045636 0.45165 -0.48934 -0.23816 -0.15881 0.57675 -0.30521 -0.81046 -0.62535 0.44431 0.12763 -0.037397 -0.76693 -0.01799 -0.49096 0.22333 0.1235 -0.71641 -0.41373 0.27532 0.032256 0.77094 -0.078955 
opel 0.30421 0.2933 -0.15076 -0.90718 -0.067009 -0.17957 0.0098151 -0.0037818 0.33299 0.60346 0.044357 0.11264 0.12023 -0.46018 0.25173 0.053062 0.13749 0.27176 0.041436 -0.60742 -0.28169 0.2888 0.26126 -0.67763 -0.58929 -0.12973 -0.018857 0.13114 0.11638 0.22805 -0.068825 0.39279 0.13838 0.29164 0.20411 -0.056893 -0.30116 -0.031501 0.065359 -0.1917 0.5358 0.097065 0.2156 0.4676 0.73819 -0.66386 -0.2358 -0.38464 0.43062 0.077502 -0.44616 0.28603 -0.33178 0.14241 -0.31298 -0.849 -0.44031 -0.22864 -0.089068 -0.23279 -0.074189 0.1688 0.29622 -0.2284 0.29206 -0.026103 0.052816 0.16402 -0.068303 -0.0010596 0.33648 -0.13665 -0.40215 -0.21913 0.42966 0.51913 0.37465 -0.33868 0.054132 -0.17154 0.16087 -0.20551 -0.2404 0.17715 -0.18383 0.073868 -0.7134 0.44158 -0.1216 0.3724 -0.10458 -0.4337 -0.028449 0.084375 0.12424 0.12181 -0.1725 0.48513 -0.21422 -0.61974 -0.57647 -0.052897 0.16569 0.89293 -0.16155 0.24857 -0.27222 -0.31729 0.91116 -0.28649 0.10261 -0.09729 0.039184 0.49827 0.50384 0.60254 -0.41386 -0.14282 -0.23796 -0.21959 -0.40836 0.86344 0.43462 0.85113 -0.43035 -0.32973 0.53273 0.46668 -0.13553 -0.5332 0.1743 -0.25273 0.096533 0.014795 0.2074 -0.16061 -0.0096227 0.5188 -0.2289 -0.089747 -0.166 -0.11555 0.096144 0.047873 0.22351 -0.40049 0.53115 -0.034455 -0.16467 -0.033248 -0.0094331 -0.22294 0.49758 -0.58526 -0.27065 -0.11257 -1.3492 0.024513 0.19219 -0.64793 -0.13049 -0.39741 0.25626 -0.09453 -0.39516 -0.48974 -0.42385 0.1549 -0.35351 -0.34822 0.2655 -0.099369 0.22469 0.26254 0.3795 -0.41426 -0.52582 0.20406 0.059374 -0.34978 0.4151 -0.067785 -0.058894 -0.59013 0.62208 0.77896 -0.19003 0.089706 0.11759 -0.26462 -0.024605 -0.29975 -0.35075 0.12959 -0.66582 -0.70873 -0.31291 -0.37274 -0.24864 -0.074467 -0.41825 0.32313 0.26287 -0.069425 -0.18111 -0.023964 0.96062 -0.17869 0.032381 -0.002483 0.29724 0.59777 -0.0093811 -0.31667 -0.14688 0.60314 0.11258 -0.049101 0.41098 -1.2102 0.079402 0.27396 -0.97733 0.45773 0.24386 0.54873 -0.048607 0.16167 -0.013003 0.044005 0.007736 -0.054462 -0.11069 0.051805 0.036736 -0.030835 -0.41588 -0.005244 -0.58343 0.36653 0.20969 0.30283 -0.22904 0.50225 0.26219 -0.51636 -0.11934 -0.058894 0.0061573 -0.16241 -0.0054067 -0.43392 0.53583 0.29266 0.068732 0.50135 0.13385 0.42598 0.49087 0.62309 -0.09528 -0.099487 0.24203 -0.14363 0.64027 0.37262 -0.058334 -0.0033279 -0.3516 0.20399 0.034574 -0.36096 0.47505 -0.40256 -0.19177 0.98179 0.32801 -0.34428 0.24614 0.039583 -0.18954 -0.42834 0.31859 -0.082668 -0.068954 -0.20047 0.37303 -0.0070656 -0.070712 0.27383 0.36596 -0.30137 0.34036 0.15679 -0.63292 -0.53461 -0.06363 -0.41667 0.5654 -0.22746 
baran 0.30629 0.66853 0.17897 -0.56827 0.070542 0.44752 0.22179 0.2872 0.096741 0.38297 -0.12473 -0.26253 0.038671 -0.095854 0.32918 0.32235 0.12977 0.202 -0.14567 -0.39047 0.32179 0.11806 -0.3019 -0.038727 -0.36186 0.20664 -0.31717 0.44375 0.099895 0.29715 -0.075648 0.13263 -0.08864 0.26001 -0.3591 0.11625 -0.36074 0.045593 -0.21888 0.092245 0.36085 0.048307 -0.055333 -0.25045 0.13032 -0.33616 -0.017277 0.13587 0.044827 0.16115 -0.17286 0.10857 0.037283 -0.17646 -0.25538 -0.18232 -0.11763 -0.11434 0.75954 0.22904 -0.30548 0.1866 -0.24826 0.092373 -0.15305 0.25796 0.53419 0.21736 -0.35714 0.14582 0.37504 -0.034282 -0.39674 0.084305 0.38636 0.29855 0.21598 -0.37224 0.15424 0.42553 -0.20775 0.17982 -0.085641 0.18651 0.30221 0.06132 0.40466 -0.035718 0.1292 0.097479 -0.02586 0.11793 -0.14845 -0.01688 -0.05579 0.39512 0.6216 0.074754 -0.47566 -0.079702 -0.16162 0.48753 -0.14684 -0.29296 -0.32924 0.49948 -0.281 0.14943 0.22663 0.18882 0.11366 -0.38374 -0.050091 -0.072355 0.10098 -0.11843 -0.30772 0.11197 -0.41199 0.10533 0.2736 -0.0074956 -0.63558 -0.13958 0.1109 0.1924 -0.1084 -0.019708 0.0020429 0.33748 0.31344 -0.28821 -0.22759 -0.10425 0.30713 0.61175 -0.12453 0.29093 0.23016 0.072509 -0.1186 -0.19707 -0.01231 0.34896 -0.012515 0.32234 0.27612 -0.1977 0.049096 0.24241 -0.041328 0.48695 -0.045055 0.18887 0.05984 -0.18425 -0.026257 -0.16236 -0.43741 -0.39241 0.023982 0.19625 -0.30005 -0.086609 0.068387 -0.050308 -0.056652 0.39854 -0.50464 -0.17493 0.18345 0.26194 -0.23855 0.37406 -0.34125 -0.34279 0.41781 -0.11817 -0.0882 0.1103 0.34185 -0.46155 -0.16565 -0.06541 0.5362 0.70179 -0.12766 0.27147 -0.15944 -0.029418 0.13486 0.043346 -0.15468 -0.28838 0.38926 -0.298 -0.12337 -0.24092 0.2665 0.22829 -0.02902 -0.053685 -0.21069 -0.27805 0.19528 -0.13108 0.33624 0.57145 0.079892 0.22335 0.082264 0.37269 0.018068 0.52688 -0.10804 0.33358 -0.31215 0.45061 0.071151 -0.22914 -0.32703 -0.22666 -0.19393 -0.060405 -0.13753 0.69944 0.22794 -0.048347 0.084382 -0.049431 -0.33891 0.0018231 0.054643 -0.32385 0.10148 0.1102 0.29792 0.10325 0.15215 -0.021207 0.090216 -0.23954 0.46736 0.19993 0.20213 -0.59815 0.29408 0.0015806 0.093623 -0.43646 -0.036209 0.16545 0.083411 -0.29249 -0.029218 0.082375 -0.19137 0.41205 -0.055003 0.75281 0.18977 -0.37963 0.56635 0.22528 0.38934 -0.43537 0.51724 0.024529 0.20021 -0.55597 0.29105 -0.13789 0.36267 -0.31073 0.10307 0.42211 0.12299 0.24472 -0.085326 0.50979 0.26277 0.04763 0.21132 -0.29923 0.30886 0.21931 0.48252 0.11595 0.23982 -0.058037 -0.1909 -0.45635 0.75729 0.097564 -0.93229 -0.46331 0.36418 -0.37399 0.086101 0.23888 
królik -0.23258 0.18641 0.047637 -0.75458 0.31103 0.017912 -0.0451 -0.10427 -0.031837 0.27414 0.03518 -0.25792 0.21115 -0.39654 0.51908 0.58469 0.26292 -0.069064 -0.025599 0.2073 0.18453 0.41351 -0.17362 -0.15837 -0.074393 0.19231 -0.27029 0.24208 -0.06816 0.42095 -0.082036 -0.12814 -0.067885 0.31415 0.17997 -0.40745 0.049738 0.31952 0.11426 0.36646 0.032222 0.11359 -0.48186 -0.53612 0.22858 -0.84361 -0.28498 0.20934 0.0038189 0.045604 0.052982 -0.34355 0.092837 0.46313 0.050054 -0.16695 -0.21417 -0.17586 0.55349 0.51618 0.32817 -0.22745 -0.044763 -0.0043755 -0.36082 -0.082281 -0.024932 0.18111 -0.34439 0.40736 -0.34815 -0.35739 -0.33821 -0.35627 0.57193 0.23843 0.012332 -0.15131 -0.16059 -0.25794 -0.38105 -0.13186 0.090158 0.14956 -0.060156 -0.3728 -0.16479 0.077559 -0.097061 0.35625 -0.13217 -0.15232 -0.35188 0.14152 0.37114 0.15777 0.35654 -0.068137 -0.10642 -0.21641 -0.38289 0.021 -0.073304 0.079362 0.29499 0.054857 -0.58533 -0.11208 -0.16195 0.17743 -0.050407 -0.39045 -0.2219 -0.10176 0.040252 -0.27344 -0.17231 -0.077566 -0.29827 -0.20028 -0.17148 0.45822 -0.69627 0.22954 0.30554 -0.12214 -0.25503 -0.14692 -0.031757 0.070148 -0.22687 -0.36436 -0.13468 -0.032195 0.51335 -0.047793 -0.020981 0.1307 -0.087097 0.51631 -0.43288 -0.13007 0.29244 0.3224 -0.099055 0.50891 0.48612 0.14818 0.51506 -0.12727 0.50575 0.27248 0.00033727 0.33162 0.026457 -0.27582 -0.23762 0.31181 -0.044878 0.44234 -0.94772 0.5986 -0.053125 -0.061784 0.037715 0.14796 0.22814 -0.11511 -0.014519 -0.23853 0.019888 -0.34177 -0.053236 0.98603 0.0075273 -0.0046115 0.031785 -0.27744 -0.44105 -0.43047 0.26898 -0.3633 0.043153 0.38105 0.40444 0.26757 -0.2214 -0.49297 -0.35058 -0.47451 0.16412 0.11879 -0.18505 0.22403 0.087255 0.050392 -0.25562 -0.28867 0.31163 -0.14916 -0.071174 -0.1154 0.3273 -0.088672 -0.10879 0.1476 0.35864 0.22682 0.01401 0.088983 0.26767 0.34963 -0.42034 -0.081679 -0.034641 -0.37892 -0.14435 0.28689 0.18208 -0.24942 0.11493 0.2311 0.056717 -0.38647 0.19571 0.63373 -0.35068 -0.2988 -0.33434 -0.13183 0.13556 0.23072 -0.097258 -0.56533 0.30801 0.00058898 0.63795 0.41353 -0.58586 -0.012049 0.2877 -0.71183 -0.22834 -0.11179 0.32099 -0.39427 0.37903 0.28637 0.14886 -0.18535 0.039485 0.37906 -0.083466 0.17508 -0.14732 0.035947 -0.21158 0.25978 -0.13328 0.56514 -0.20823 -0.39595 0.34149 0.50149 -0.1611 -0.50074 -0.10622 -0.17739 -0.19264 -0.15257 0.33955 -0.46896 -0.2848 -0.19954 -0.35463 0.40094 0.66808 0.28581 0.59982 0.5691 0.00027454 -0.26049 -0.13932 -0.043395 0.11511 -0.22815 0.35498 0.19091 -0.69865 -0.045442 -0.10578 -0.44167 0.43508 -0.1036 -0.63185 -0.34981 0.40826 -0.051094 0.42463 -0.010249 
astra 0.35511 0.072221 -0.049326 -0.48405 0.063068 0.12296 0.1024 0.12366 -0.031097 0.19916 0.31584 0.014588 0.37928 0.14451 0.28274 0.54564 -0.062224 -0.12832 0.83576 -0.45468 0.067705 0.48901 0.51816 -0.28758 -0.3087 0.36419 -0.28451 -0.055292 -0.16882 -0.12457 -0.12742 -0.10734 -0.12926 0.040889 0.33525 -0.010357 -0.4621 0.37361 0.090953 0.11708 0.88511 -0.28148 -0.26487 0.28157 0.43258 -0.13624 -0.27963 -0.11047 0.52657 -0.51788 -0.2403 0.16324 -0.16903 -0.13847 -0.28699 -0.21424 0.079884 -0.344 0.062597 0.17862 -0.61036 0.094777 -0.08736 -0.26781 0.39278 -0.25139 -0.18637 0.25243 -0.097805 -0.44 -0.36894 0.065672 0.36913 -0.065222 0.85826 -0.39515 0.43985 -0.28275 0.19323 0.038808 0.043398 -0.17346 -0.041161 0.22532 0.10825 -0.05157 -0.49268 0.34353 0.28377 0.026434 -0.14555 -0.43679 -0.15454 -0.18809 0.12701 0.050664 0.31002 0.1801 0.038854 -0.63331 -0.42047 0.12407 0.12679 0.25352 0.076253 -0.042173 -0.77431 -0.034122 0.48128 0.448 -0.15275 -0.13327 -1.1352 0.058342 -0.16708 0.44698 -0.40825 -0.00099767 -0.13965 -0.056421 0.38219 0.31419 -0.20282 0.55642 0.00068347 0.035263 0.62355 0.46905 0.59778 0.087636 0.32528 0.44046 0.20696 -0.36919 0.40392 -0.071853 0.14477 0.18247 0.095517 -0.11078 0.19002 -0.073097 0.40604 0.16206 -0.061502 -0.22121 0.1757 0.22957 0.14366 0.30262 -0.21141 -0.35114 0.29071 0.072826 -0.33393 0.24103 -0.50942 0.20196 -0.24175 -0.16081 -0.0772 -0.037111 0.31121 0.48779 -0.003881 -0.18085 -0.34087 0.0073871 -0.29508 -0.51 0.31632 -0.4091 0.29425 -0.0052473 0.031422 -0.4743 -0.24559 0.36239 -0.20774 0.026819 0.47279 -0.25286 0.052145 -0.24225 0.37852 0.62028 -0.097058 0.036316 -0.3222 0.15833 -0.29062 -0.26522 -0.05972 -0.31444 -0.16137 -0.53481 -0.61289 -0.1085 -0.5288 -0.29437 0.068699 0.11869 0.43639 0.0054619 0.12149 -0.26164 0.26713 -0.38238 0.1703 0.1041 -0.27715 0.69262 0.056061 0.14761 -0.38874 0.2848 -0.1174 0.29962 -0.26 -0.69499 -0.43995 -0.45313 -0.41982 0.24651 -0.095711 -0.19262 0.13783 -0.26856 -0.059934 0.0086644 -0.19294 -0.14994 -0.33954 -0.3222 -0.15282 0.49553 0.15763 -0.16662 -0.073406 0.49761 0.36255 0.36658 0.23423 0.71008 0.29894 -0.38582 -0.083996 -0.17597 0.33433 -1.0069 0.27575 -0.096316 0.17352 -0.06519 0.1385 0.57847 -0.60017 0.13373 0.17291 0.35342 0.1629 0.36844 0.27451 0.28779 0.53097 0.20576 -0.28657 0.36358 -0.44917 0.080277 0.037454 0.096623 0.1546 0.18118 0.16651 0.69927 0.33862 -0.13729 -0.11629 0.31072 -0.31676 -0.82211 -0.13274 -0.042312 -0.017511 -0.24109 -0.042797 -0.29313 -0.19378 -0.12843 0.20697 -0.68913 0.0087617 -0.14814 -0.76386 -0.017247 0.55119 -0.29933 0.24785 -0.60047 
kucharz 0.063698 0.10777 -0.053599 -1.0381 0.23636 -0.098677 -0.11434 0.43312 0.070283 0.54192 0.18194 -0.11253 0.16074 0.2495 -0.29511 0.25857 0.32774 0.30245 0.41982 0.20513 -0.45435 0.15208 -0.24771 0.21752 -0.10896 -0.20923 -0.45035 -0.27324 -0.27462 0.11444 0.19622 -0.12846 0.012996 0.07483 0.048183 -0.33505 0.01528 0.13482 0.34365 -0.023651 -0.54653 0.31645 0.0042586 -0.15899 0.20181 -0.38763 0.43736 0.012017 -0.09432 0.26743 -0.28506 0.058488 -0.14581 0.32962 0.012894 -0.32001 0.2704 -0.20249 0.63185 0.54674 0.13272 -0.24709 -0.12567 0.14197 0.028825 0.19109 0.1837 -0.038469 -0.24747 0.37914 0.10826 -0.035752 0.12343 -0.14468 0.0099303 -0.42254 -0.17157 -0.17987 -0.26493 0.2538 -0.22542 -0.089872 0.51905 -0.060692 0.11331 0.0063255 0.10053 0.071791 0.39839 -0.098114 -0.090093 -0.17808 -0.33194 0.29211 0.44472 0.085492 0.43429 0.33076 0.33581 -0.05722 -0.45727 0.14204 0.099284 0.20576 0.30711 -0.053341 -0.63963 -0.17016 0.00063648 -0.42912 0.789 -0.31593 0.056847 -0.24884 0.24265 0.28155 0.02531 0.048261 -0.25452 -0.05229 0.15363 0.25816 -0.0035006 0.26363 0.0021549 0.5595 0.037839 -0.20615 -0.13286 -0.2845 0.8108 -0.39908 -0.17536 -0.057766 0.34483 0.21688 -0.41274 -0.1406 0.1023 0.16238 -0.081683 0.62828 0.1641 -0.13956 -0.29593 0.090099 -0.052969 -0.046061 0.31309 0.17603 0.16297 -0.19831 0.27078 0.23755 -0.5757 -0.23955 -0.1682 0.42482 -0.28074 0.19647 -0.61146 0.23391 0.1691 0.23482 0.093605 -0.13477 -0.30687 0.19816 -0.22353 -0.095628 0.076535 0.33071 -0.16849 -0.32978 0.0080951 -0.062924 0.124 0.013608 -0.084242 -0.027795 0.036001 0.15052 0.3145 0.025563 0.096692 -0.30777 -0.0085128 -0.38033 -0.22069 0.22784 -0.52238 0.15849 0.12403 0.12113 -0.070248 0.095505 0.18554 -0.26801 0.19435 0.062112 0.060056 -0.47316 0.053526 -0.22032 -0.10585 0.091847 0.42396 0.54827 0.021957 0.41373 0.56734 0.21688 0.096464 0.12476 0.10233 0.016603 0.33414 0.15153 -0.021087 -0.38598 0.014897 0.32563 -0.04725 -0.25255 0.068795 0.8645 -0.42437 -0.10713 0.11834 -0.32114 -0.028681 0.038908 0.081091 -0.50128 0.24 -0.25174 0.033793 0.32272 -0.1931 0.18255 0.13117 0.29458 -0.3228 0.45774 0.42629 0.091032 -0.40353 -0.047441 -0.018473 0.18311 -0.073789 0.26552 0.038885 0.18594 -0.41523 0.031078 -0.25919 -0.28218 0.12475 0.016336 0.35062 -0.14584 -0.027838 0.17642 -0.034436 -0.4013 -0.070224 0.088934 0.047295 -0.28783 0.060388 -0.1212 0.22888 -0.67412 -0.59706 0.46811 0.11357 -0.26643 0.26161 0.68896 -0.092521 0.12604 -0.096104 0.3099 0.051935 -0.011528 -0.016915 0.35601 -0.28533 0.045896 0.10801 -0.38287 0.67859 0.33691 -0.54656 -0.13923 0.38194 0.20736 0.40172 0.61704 
owca 0.2122 0.39322 0.2027 -0.87458 0.058191 0.092462 -0.39872 0.18871 -0.2852 0.54693 0.42922 0.047372 0.14088 -0.24446 0.29618 0.54459 0.2281 0.17003 -0.061601 -0.1929 0.20959 0.29858 0.16841 0.054581 -0.5209 0.49085 -0.13109 0.47653 0.084288 0.11315 0.21437 -0.067933 -0.16713 0.13589 -0.23991 0.15098 -0.28545 -0.10416 -0.19862 0.14998 0.32362 -0.047647 0.026309 0.26396 -0.14415 -0.39325 0.2862 0.58924 -0.35539 0.096829 0.052249 0.14112 -0.02785 0.22393 -0.40675 0.066237 -0.2888 -0.50364 0.79776 0.35138 -0.31565 -0.34213 -0.26697 -0.13154 -0.010925 0.0086023 0.80972 -0.42588 0.024195 0.34726 -0.045925 -0.32286 0.13845 0.34803 0.48415 0.33827 -0.087456 -0.26322 -0.16206 0.09005 0.12766 -0.43869 0.32601 0.043741 -0.0298 0.25453 0.23323 0.1161 -0.10014 0.37122 -0.2996 -0.20478 -0.57785 -0.36306 0.20079 0.23935 0.15036 0.044603 -0.20557 -0.5578 -0.31017 -0.12538 0.18381 0.42777 0.10277 -0.048045 0.021997 -0.15955 -0.089771 0.020711 -0.02083 -0.46828 -0.43466 -0.31777 -0.26984 0.022366 0.020458 -0.58067 -0.37545 -0.14848 0.016384 0.073783 -0.21728 0.24272 0.38636 0.3372 -0.062585 -0.3048 0.12671 0.26807 0.25802 0.076371 0.094103 0.20481 -0.21041 -0.036714 0.22312 0.35988 0.49421 0.12848 -0.13448 -0.21598 0.46057 0.41376 -0.26171 0.38863 0.21205 0.043065 0.48588 -0.20118 -0.026507 0.37841 -0.085642 0.46349 -0.4067 -0.52581 -0.31176 -0.034212 -0.25511 0.5148 -0.15277 0.1025 0.32076 -0.52679 0.57353 0.132 -0.25668 -0.19877 0.42247 0.36555 -0.10368 -0.20691 0.053773 0.0047526 0.16223 0.12755 0.0019093 -0.094482 -0.32035 0.10693 0.27146 -0.48626 -0.50362 0.18918 0.40545 0.314 -0.15991 -0.56003 -0.30352 -0.14191 0.25757 0.19231 0.21208 0.20626 0.32187 -0.047915 0.19569 -0.26878 0.17326 0.05117 0.42566 -0.63035 0.3908 -0.18916 -0.71918 -0.054929 0.18764 -0.091611 -0.064436 0.21661 0.21922 0.32629 -0.024096 -0.15906 -0.033776 0.086241 -0.49696 -0.30316 0.37338 0.10292 0.19167 0.099556 -0.60059 -0.21541 0.25169 0.80268 0.20301 -0.75001 0.34619 -0.15778 -0.54218 -0.32482 -0.013496 -0.2249 0.024799 0.068623 0.97675 -0.04253 -0.29588 0.13877 -0.11781 -0.24779 0.35301 -0.01536 -0.12653 -0.4956 0.15125 0.28343 -0.16983 -0.39301 -0.024891 -0.22023 -0.25772 -0.40912 -0.62271 0.48836 -0.95045 -0.21107 0.51417 0.5931 0.083257 -0.00069861 -0.29995 0.14336 0.17027 -0.42682 0.49035 0.064378 -0.37264 0.032855 0.043504 -0.38787 -0.59232 -0.11667 -0.73891 0.63418 -0.043251 0.53249 -0.039106 0.51262 -0.059407 0.017096 0.2181 0.23313 0.072714 0.18225 0.31145 -0.014613 0.060064 -0.012083 -0.13687 -0.29175 0.86968 0.44762 -0.67544 -0.54255 0.11236 -0.085537 0.16203 -0.24038 
krowa 0.46079 0.44657 0.47378 -0.85329 -0.44923 -0.12775 -0.12547 -0.13828 -0.28685 0.070917 0.38924 0.24741 0.084216 -0.39286 0.39547 0.11576 0.12633 -0.043909 -0.10555 -0.31894 0.053023 0.38674 -0.10548 -0.019641 0.11166 -0.018793 0.082722 0.4139 0.24827 0.099051 0.35915 -0.53697 0.35986 0.18244 -0.12105 -0.46584 -0.17751 -0.31888 -0.29008 0.47324 0.10976 0.083948 -0.10643 -0.22268 -0.083823 -0.32078 0.31993 0.57732 -0.47601 -0.032159 0.12356 0.07811 -0.14673 0.40257 -0.47779 -0.23733 -0.18294 0.0012082 0.71209 0.43719 0.12864 -0.37048 -0.076039 -0.27415 -0.14854 -0.21956 0.014273 0.41578 -0.26139 -0.044981 -0.27009 -0.18216 -0.1005 -0.15062 0.40026 0.072099 0.11474 -0.26107 0.22279 0.26597 0.10351 -0.34139 0.087956 -0.42256 -0.10654 -0.24103 0.29362 0.25082 0.27413 0.40821 0.37612 0.14272 -0.081269 -0.36566 -0.30923 0.56463 0.35844 0.26005 0.076713 -0.2697 -0.095117 -0.055803 0.3253 0.36641 0.33536 -0.37563 0.06945 -0.048956 0.1193 -0.1838 -0.12564 -0.22302 -0.24759 -0.14964 0.20334 -0.062332 -0.24226 0.058964 -0.14815 -0.055476 0.21838 0.58703 -0.41512 0.52573 0.41895 0.10018 -0.23398 -0.14144 -0.14522 -0.20114 0.21104 0.20764 -0.048136 -0.53098 0.10169 0.029113 0.036548 0.29818 0.025275 0.23226 -0.25472 -0.40445 0.39817 0.48949 -0.1974 0.035057 0.22809 -0.40652 0.076419 -0.22597 -0.2219 0.22175 0.18058 0.58788 -0.084921 -0.51081 -0.21843 0.069291 -0.57535 0.19781 0.2041 -0.28742 0.48666 -0.10417 0.096015 -0.057053 -0.089773 -0.055376 0.22692 0.067175 -0.094113 -0.09995 -0.59186 0.1896 0.16798 0.19575 0.23387 -0.50159 -0.57431 0.11522 0.38932 -0.3409 -0.058772 0.20517 0.086518 0.28556 -0.042117 -0.5142 0.31161 0.066371 0.10163 0.062191 0.077276 0.043803 0.018268 0.016166 -0.047053 0.058044 0.085792 0.029045 0.30234 -0.54568 -0.29838 -0.18361 -0.072527 0.38562 0.01454 0.03345 0.21526 0.38631 0.41778 0.30886 0.054591 0.18588 0.2195 0.17073 -0.076142 -0.12609 0.11139 -0.15426 -0.034477 -0.036295 -0.29933 -0.084454 0.12214 0.57578 -0.16261 -0.50208 0.34727 0.15632 0.09096 0.17095 -0.28374 -0.29817 0.31803 -0.021231 0.36851 -0.46515 -0.47407 0.23897 -0.16132 -0.28532 0.059188 0.32344 0.14244 0.010037 0.62688 0.19237 -0.17166 -0.13658 0.41031 0.40707 0.15272 -0.11726 -0.35706 0.032276 -0.0809 0.014205 0.36018 0.64643 0.12204 -0.1533 -0.41702 0.26678 -0.33631 -0.68083 0.16546 -0.27633 -0.21395 0.076969 0.47193 -0.84988 0.028735 -0.28109 -0.26353 -0.0628 0.19264 0.61928 0.38139 0.50124 -0.38188 0.051535 -0.11429 -0.26101 0.10702 0.21491 0.37152 -0.0096755 -0.022739 -0.036876 0.044097 -0.14807 1.0858 -0.014722 -0.17617 -0.12881 0.40369 0.06627 -0.0002455 -0.83678 
stolarz -0.0019488 0.1501 0.14806 -0.73538 0.207 -0.067897 0.16464 0.23245 0.52199 0.61187 -0.051179 -0.22506 0.39836 -0.20649 -0.53721 0.2827 -0.22731 -0.056013 -0.20863 -0.27943 -0.40213 -0.1292 0.31594 -0.31525 -0.096165 0.028477 -0.47481 -0.12999 -0.027073 0.66982 -0.10224 -0.16831 0.1483 -0.15556 -0.014858 -0.31582 -0.0846 -0.046025 -0.11147 0.32592 -0.1253 0.47768 0.37437 0.39107 0.4967 -0.48115 0.48685 -0.015889 0.097238 0.22428 -0.26103 0.13115 -0.069482 0.43279 0.03678 -0.38929 -0.031574 0.14176 0.61014 0.23424 0.26777 0.11308 -0.32666 -0.27025 0.13724 0.2725 0.27015 -0.24086 -0.53513 0.64736 0.44108 0.06628 -0.18625 -0.19118 0.32717 0.31718 0.21226 -0.51809 -0.22771 0.42777 0.25266 -0.22567 0.13679 -0.27788 0.20229 0.0091844 -0.04296 -0.087156 0.15453 -0.69737 -0.10594 0.18036 -0.43121 0.47155 0.017713 -0.000561 -0.2464 0.13306 0.070205 -0.30563 0.14927 -0.069333 0.41869 -0.057579 0.10162 -0.28545 -0.38758 -0.13538 -0.05172 -0.17931 0.34621 -0.28275 0.40518 -0.2267 0.051659 0.037798 -0.015867 0.16018 0.15938 0.044062 0.29089 0.3328 -0.27704 0.40831 0.018497 -0.21447 -0.12372 -0.040022 -0.11184 -0.085346 0.23502 -0.040689 -0.11777 -0.26957 0.32974 0.0040514 -0.52831 0.48032 0.099169 -0.12227 -0.23752 0.4669 0.20121 0.2826 -0.039593 0.39946 -0.093415 -0.32304 0.026286 0.14295 -0.33367 0.03518 0.066142 0.45401 -0.19901 0.024855 -0.026871 0.19207 0.01402 0.05041 -0.26775 -0.29271 0.097778 0.11059 -0.27427 0.27753 0.31718 -0.055173 -0.22122 -0.073716 -0.18528 0.4067 -0.48383 -0.65385 -0.020963 -0.22864 -0.20053 -0.34462 -0.10461 -0.28137 -0.078268 0.042198 0.18321 -0.1646 0.33535 -0.2699 -0.063762 0.06322 -0.38241 0.69738 -0.096699 0.26621 0.058884 -0.32824 0.38657 -0.26738 0.020775 -0.17655 0.10052 -0.042843 0.1127 -0.14982 0.13167 -0.49863 -0.33017 0.033631 0.11555 0.36406 -0.015646 0.49819 0.19268 0.085485 0.34171 0.36534 -0.052636 -0.03336 -0.20017 0.50521 -0.0012689 -0.21379 -0.35996 0.2323 -0.53544 -0.15178 0.039385 0.50837 -0.5216 -0.47182 0.34792 -0.53242 -0.2613 0.23752 0.0056283 -0.6473 -0.074317 0.5189 -0.23254 0.84567 0.20923 0.37732 0.13321 -0.0049401 0.39188 0.48438 0.49707 0.28896 -0.10926 -0.29747 -0.11736 0.38436 -0.43383 -0.034486 -0.2725 -0.2482 -0.0064064 0.16336 -0.099531 -0.08784 -0.51502 0.29314 -0.16501 0.079898 -0.32368 0.12076 0.038282 -0.59604 0.10883 0.11088 0.15371 -0.20204 -0.4221 -0.072424 -0.13386 0.12398 -0.6435 0.37529 -0.13954 -0.29371 4.5471e-05 0.57637 0.13859 -0.23595 -0.22424 0.050784 0.27887 0.43805 -0.02831 0.093441 0.20249 -0.37912 0.21889 -0.05147 0.52458 0.057709 -0.23941 -0.54893 0.087396 0.3265 0.27364 0.24973 
papuga 0.72396 0.35319 0.073657 -0.69829 0.082617 0.15562 -0.49071 0.30224 -0.57933 -0.13212 -0.11588 0.28932 -0.66425 -0.28946 0.1997 0.52376 0.40446 -0.10222 -0.10645 0.11492 0.41114 0.14944 -0.20431 0.029439 -0.13102 -0.095077 0.031953 0.5936 0.21133 0.31659 0.19628 0.64486 0.14205 0.052556 -0.044942 -0.095808 -0.028475 0.2249 0.053877 -0.095682 -0.25525 -0.049957 0.034042 0.062644 0.14336 -0.46125 0.041793 0.5518 0.09524 -0.13666 0.45713 -0.057237 0.25769 0.61203 -0.29426 0.1033 -0.19036 -0.6169 0.6124 0.28715 -0.024076 0.059308 -0.10755 -0.0419 -0.14933 0.078564 0.25052 0.20465 -0.0706 0.34829 0.072131 -0.37047 -0.02023 -0.31073 -0.090107 0.14668 -0.60595 -0.42148 0.08055 -0.059933 0.28613 -0.57938 0.12175 -0.19401 -0.086342 0.17726 0.11962 0.20212 0.24454 -0.32675 -0.32593 -0.099802 -0.25431 -0.12411 0.0083102 0.22171 0.14978 -0.31247 -0.030154 -0.37823 0.16242 0.33336 -0.14786 0.79999 -0.32335 -0.10984 -0.1047 -0.079485 -0.22852 0.13177 -0.25087 -0.11666 -0.42174 -0.099955 -0.18639 0.078577 0.37394 -0.14367 -0.5665 0.046762 -0.19547 0.12416 0.13441 0.42893 0.083528 -0.29309 0.10028 0.17649 -0.19574 0.20941 -0.15183 -0.31383 0.03723 -0.24646 0.27614 -0.15793 0.081174 0.28418 0.27913 0.24068 -0.11697 -0.15448 0.47477 0.60658 -0.30115 0.39393 0.03231 -0.32862 0.32348 0.2059 0.40362 0.16752 -0.086548 0.66114 0.031849 -0.44495 -0.32627 0.31698 -0.035856 -0.017681 -0.11322 0.17216 0.086488 -0.045996 0.21886 0.068144 -0.15198 0.18864 0.2914 -0.079604 -0.44017 0.13797 -0.10519 0.64122 0.1463 -0.019104 0.27453 0.041266 -0.2062 -0.29086 0.22482 -0.017572 -0.50112 0.29378 0.072064 0.35951 -0.14961 -0.16846 -0.10026 -0.16565 -0.32218 0.26391 -0.020049 0.34067 -0.041746 -0.22584 0.15395 -0.31706 -0.0048523 0.11811 0.044465 -0.054373 0.28848 0.006012 -0.27255 0.17439 -0.074724 0.12987 0.046783 0.32845 -0.072749 0.11604 -0.13817 0.42812 -0.018369 0.03609 0.068651 0.089826 0.47481 -0.23845 -0.25029 0.00079898 -0.21567 0.11096 -0.16986 0.60019 0.018934 -0.1988 -0.41292 0.1747 -0.21237 0.49084 0.068721 0.40659 0.037265 -0.17923 0.28401 0.30932 -0.092596 0.23981 -0.30195 -0.36795 -0.28081 0.73331 -0.0045205 -0.31391 0.23545 0.38966 -0.18375 0.15983 0.28853 0.48574 -0.025556 -0.19945 -0.53427 0.22735 -0.32095 0.26725 0.35884 0.27452 0.010334 -0.22591 -0.51056 0.13731 -0.2249 -0.18263 -0.21907 0.10729 -0.45589 -0.22742 0.25078 -0.27909 -0.047103 -0.69435 -0.42486 0.17626 -0.025161 -0.017506 -0.11793 0.47716 -0.57014 -0.39854 -0.086124 -0.11327 0.14752 0.24787 0.15393 0.38405 -0.26658 -0.14646 0.21815 -0.11367 0.97912 -0.13545 -0.4334 -0.45822 0.65278 0.13127 0.067418 -0.33174 
murarz 0.015815 -0.020398 0.33545 -0.71517 0.33452 0.18007 -0.25362 -0.081053 0.54267 0.50365 0.1325 0.21294 0.34079 -0.093529 -0.06468 0.2886 0.1876 0.24264 -0.14149 0.08362 -0.53236 -0.20959 0.0062329 -0.15787 -0.41381 0.091559 -0.2491 -0.11112 -0.16404 0.74331 -0.084874 -0.083846 -0.4428 -0.27301 -0.11998 -0.21144 -0.37804 -0.064291 0.11974 0.57223 0.10482 0.49089 0.27054 -0.10929 0.65671 -0.42466 0.30935 -0.18209 -0.13768 0.32052 -0.12314 -0.16982 0.080024 0.40102 -0.12772 0.02148 0.099647 -0.1061 0.44325 0.3774 0.33581 -0.15046 -0.41153 -0.014633 0.43514 0.29769 0.47759 -0.34658 -0.37574 0.23574 0.36418 -0.034276 -0.27163 -0.086838 0.12379 0.41657 0.03482 -0.55299 -0.26318 0.21594 0.050966 -0.23689 -0.037612 -0.18069 0.24583 -0.19313 0.285 0.060657 0.15986 -0.50572 -0.2251 0.33446 -0.17345 0.87757 -0.23906 0.26851 -0.43394 0.46774 -0.24546 -0.64 -0.13426 -0.15491 0.40565 0.098537 0.1247 -0.25908 -0.19937 0.026151 -0.087727 0.013233 0.4853 -0.21791 0.32927 -0.1391 0.19426 -0.012166 -0.16314 0.28953 0.19571 -0.060913 0.52434 0.032182 -0.093624 0.37621 -0.23432 -0.074136 -0.13773 0.03903 -0.40562 -0.19898 0.78698 -0.21082 -0.13236 -0.079948 0.51697 0.1767 -0.31314 0.16451 0.067085 -0.085656 -0.081656 -0.02969 0.1972 0.17931 -0.12609 0.31958 -0.27791 -0.32154 -0.03996 0.26147 0.056417 -0.020071 -0.31838 0.30116 -0.027561 0.07621 -0.28977 -0.048531 -0.066072 -0.028575 -0.26458 -0.27752 -0.14304 -0.074836 -0.79401 0.080506 -0.20379 -0.27088 -0.02875 0.03805 -0.17173 0.09757 -0.78621 -0.79755 0.11694 0.2171 -0.36928 -0.55221 -0.41024 -0.22886 -0.089661 0.084158 0.11194 0.10774 0.25645 0.17008 -0.24108 -0.16929 -0.60144 0.73007 0.17852 0.41302 0.31377 0.036893 0.39979 0.02239 0.29895 -0.70947 0.063393 0.43416 -0.18291 -0.46303 -0.038955 -0.40152 -0.35133 0.063032 0.13365 0.2131 -0.16632 0.17005 0.11542 0.034588 0.57111 0.43222 0.38025 0.073109 -0.40983 0.079553 0.083354 -0.049468 -0.22892 0.16598 -0.28753 -0.20329 0.041129 0.3185 0.083747 -0.40053 0.25294 -0.24653 -0.24902 0.23873 -0.15063 -0.23157 0.11019 0.62342 -0.3125 0.67724 0.18884 0.17864 0.603 -0.0062831 0.27239 0.24342 0.74915 -0.025546 0.10174 -0.17218 0.092165 0.31006 -0.33359 0.21692 -0.35148 -0.36863 -0.28954 0.38491 -0.20651 -0.048781 -0.27711 0.073651 -0.078723 0.092667 -0.58748 0.23041 -0.0020671 -0.28296 0.29349 0.12374 0.24846 -0.13445 -0.3921 0.12675 -0.22936 0.2332 -0.50735 0.53305 0.024391 0.12333 0.26466 0.41912 0.22316 -0.13864 -0.22871 -0.24179 0.070898 0.40161 -0.12856 0.33485 0.26509 -0.17037 0.050449 -0.0043949 0.27928 0.20089 -0.47787 -0.35987 0.1813 0.41954 0.38913 -0.023769 
